\data\
ngram 1=14031
ngram 2=80029

\1-grams:
-0.77088684	<unk>
-inf	<s>	-1.0721743
-1.1924111	</s>
-5.345185	﻿من	-0.12410415
-2.9418294	المكان	-0.5202765
-3.8425746	ارسالك	-0.2577552
-3.5915074	م	-0.34083056
-2.6033058	ارسل	-1.3721036
-2.0103188	يا	-1.191356
-3.114377	مالك	-0.89378464
-4.7273474	ثمنطعش	-0.5713328
-2.3762631	جيد	-1.0422212
-3.391373	تحيات	-0.6316797
-3.3409624	سهيل	-1.0726676
-3.2748652	تنين	-0.4393164
-3.1999617	لجميع	-0.82900375
-3.6132274	المجاهدين	-0.2687169
-4.7273474	العاملين	-0.2022382
-3.925554	لهذه	-0.49587524
-3.6857808	اليله	-0.43449178
-4.505422	سامر	-0.30862987
-2.9010842	سبعه	-0.68425846
-2.5405777	صحيح	-0.7352759
-2.8799977	يتم	-0.5654461
-3.6360912	استلام	-0.56955576
-3.5915074	البرقيه	-0.38532704
-2.8925264	عشره	-0.5431199
-3.1589596	قدس	-1.2889053
-2.3788521	اثنين	-1.1551805
-2.833212	اجب	-1.8379906
-2.3788521	ابو	-0.79005194
-3.5321918	بلال	-0.57939374
-2.1394455	الي	-0.65730506
-1.840102	في	-0.6559363
-4.9512773	الشابوره	-0.12410415
-2.717141	هذا	-0.45042768
-3.772935	فاضي	-0.29805443
-3.002884	حتي	-0.76251566
-2.34514	الان	-0.59644794
-3.5915074	اني	-0.14537738
-4.9512773	اتحركت	-0.12410415
-2.2152734	اه	-0.59428966
-1.84123	علي	-0.77160704
-3.1748989	الجميع	-0.84759665
-3.1999617	الانتباه	-0.85440624
-3.8063602	وعمل	-1.0771528
-3.6360912	الازم	-0.6259263
-2.6565044	لك	-0.6110504
-3.5321918	التحيات	-0.5529501
-4.9512773	الن	-0.12410415
-3.2748652	حربي	-0.60467964
-3.3066576	العد	-0.5126137
-3.9738622	طاءرتين	-0.2742372
-3.8425746	متجه	-0.3371091
-1.7622684	من	-0.9662431
-3.5321918	الشمال	-0.5407018
-3.8820853	لجنوب	-0.33391985
-2.9142456	داخل	-0.39883128
-4.505422	عرض	-0.8981329
-3.114377	سهم	-1.0346438
-2.7745273	اربع	-0.7328032
-3.208648	اطلع	-0.55992436
-3.9738622	درجه	-0.8134574
-2.9612427	مجد	-1.1593821
-3.6132274	وتسعين	-0.6331646
-5.345185	علاياده	-0.12410415
-3.418957	مناوب	-0.51692647
-2.5349617	طرفك	-0.67223454
-3.391373	اليك	-0.8083409
-2.463127	اله	-0.69135785
-4.9512773	فحبيت	-0.12410415
-5.345185	اشعرك	-0.12410415
-3.1004782	انه	-0.15657769
-3.0083814	هيك	-0.253318
-5.345185	وحبيت	-0.12410415
-2.8598876	اذا	-0.37767625
-2.6419861	فيه	-0.3329124
-4.1629367	امكانيه	-0.1966559
-5.345185	تدبروا	-0.12410415
-3.5708222	لنا	-0.20770518
-3.514093	سياره	-0.21506613
-5.345185	زفه	-0.12410415
-2.5799966	يعني	-0.29732516
-5.345185	لعرس	-0.12410415
-3.8063602	اكر	-0.6359254
-3.1287353	اركان	-1.4486064
-3.2175117	ثنين	-0.5044882
-3.1748989	جميع	-0.87497497
-4.505422	فرعيات	-0.12410415
-5.345185	ومركزيات	-0.12410415
-2.8369238	بخصوص	-0.4357244
-3.5510776	صوت	-0.38731673
-3.925554	الانفجار	-0.19674385
-3.7418993	الذي	-0.26716614
-3.8820853	سمع	-0.24232703
-2.6792343	قبل	-0.6791915
-3.8820853	قليل	-0.49394727
-5.345185	سبعتعشر	-0.12410415
-3.5915074	هلو	-0.9852982
-3.1748989	ياسين	-1.0213937
-4.9512773	ونوه	-0.4573641
-2.66646	طرف	-0.71664673
-3.4049459	دخول	-0.641443
-3.0083814	طيران	-0.96164954
-4.9512773	وقصرويت	-0.12410415
-4.505422	طاحت	-0.12410415
-3.2748652	علم	-0.58577824
-2.8369238	تمام	-0.57577497
-3.5915074	اخوي	-0.5673675
-2.9662344	باقول	-1.1363461
-3.3782113	نفس	-0.32686728
-5.345185	السينريو	-0.12410415
-3.4800124	بالنسبه	-0.2064522
-4.7273474	لموضوع	-0.12410415
-3.1589596	الاشارات	-0.30282626
-3.9738622	الموجود	-0.12410415
-3.5915074	منذ	-0.4772715
-3.5321918	وينك	-0.69773465
-5.345185	منزعق	-0.12410415
-2.9563074	عليك	-0.38067043
-4.359261	بتردش	-0.24562672
-3.2358005	لواء	-0.6673449
-2.2534266	استلمت	-1.1836908
-4.505422	داود	-0.16927956
-3.3654366	عاصم	-1.0672414
-3.6360912	راءد	-0.58353585
-2.6639495	اربعه	-0.7286276
-4.9512773	وحاد	-0.12410415
-2.8925264	الوضع	-0.81977826
-2.7433815	طرفنا	-0.68799084
-3.4484127	هادء	-0.95600724
-3.4639251	ارضا	-0.8519521
-5.345185	وجوا	-0.7253158
-3.8425746	ولك	-0.4265526
-3.2452424	التحيه	-0.78710216
-2.8759005	سامع	-1.3837599
-3.8820853	باحكي	-0.39806122
-3.4484127	الارضي	-0.44799802
-3.391373	عمر	-0.69202197
-3.772935	براء	-0.6129758
-2.359801	واحد	-0.8398601
-4.9512773	المستعان	-0.18134783
-2.7199795	ماشي	-0.7489386
-3.208648	اجواء	-0.524502
-4.0903783	الجوره	-0.8162899
-3.4967184	الزنانه	-0.838463
-4.7273474	بولدوزر	-0.34948406
-3.3409624	درع	-0.82101405
-4.9512773	الحيني	-0.12410415
-3.8063602	مباشر	-0.3445884
-4.0903783	موصوله	-0.7027985
-4.0282245	حسين	-0.4718976
-5.345185	سيسي	-0.12410415
-3.9738622	القاءد	-0.19307044
-3.418957	احمد	-0.31933498
-3.4334352	ناصر	-0.46205157
-3.4484127	صوره	-0.97792405
-2.9867969	الموقف	-1.0213157
-3.107372	طرفكم	-0.4721204
-3.3782113	تبع	-0.20829825
-4.0282245	لمقاومه	-0.282479
-2.7228367	شرق	-0.5386506
-3.772935	تءكد	-0.1722235
-3.4484127	ام	-0.4397129
-4.7273474	تنفي	-0.18134783
-4.359261	اصفار	-0.12410415
-2.416818	كيف	-0.86406547
-4.7273474	حادث	-0.16927956
-4.505422	امني	-0.27959523
-3.3782113	المنطقه	-0.39778796
-3.8425746	الجنوبيه	-0.47476923
-3.208648	فراس	-0.9852954
-3.4800124	رفح	-0.341913
-2.7777681	واله	-0.42184156
-2.63257	لا	-0.6606911
-4.359261	خاطر	-0.16927956
-3.772935	خليها	-0.15937057
-4.359261	لاحد	-0.34727374
-3.925554	افضل	-0.16141638
-4.359261	غريب	-0.2346376
-2.6210802	عالسمع	-1.2510067
-4.0903783	معلم	-0.5097783
-3.2748652	يرموك	-0.886426
-3.4967184	كلمني	-0.43694186
-3.514093	رضوان	-0.62344337
-3.5321918	السلك	-0.27697408
-4.7273474	السلكين	-0.2022382
-4.9512773	مزدوج	-0.24729894
-3.5321918	صح	-0.38036972
-4.7273474	عمءه	-0.3781829
-4.0903783	وثمانيه	-0.27665514
-3.8063602	رنيت	-0.49561393
-3.391373	الو	-0.92220515
-3.5321918	حسام	-0.680074
-2.9974551	تحياتنا	-1.6379738
-4.2500987	زمان	-0.2467697
-3.1004782	طيب	-0.3873167
-2.8925264	ميه	-0.6811783
-4.359261	الميه	-0.30086124
-3.1214967	جاهز	-0.42698744
-3.772935	حالك	-0.5167651
-5.345185	بالنوعيه	-0.12410415
-3.6602256	الماهول	-0.24242397
-4.7273474	والغير	-0.24495962
-3.8820853	المعتاد	-0.33871114
-4.505422	معظم	-0.21553217
-2.896784	الاجواء	-0.84292215
-2.9763942	سيتم	-0.5903881
-3.391373	ارسال	-0.3021572
-3.772935	شخص	-0.21860631
-3.0139494	كان	-0.25560656
-2.9815643	اليوم	-0.33884338
-2.8638358	معك	-0.46461922
-4.9512773	نا	-0.12410415
-4.9512773	وسوبر	-0.12410415
-4.359261	هيرون	-0.27421457
-3.4800124	وسط	-0.34348658
-5.345185	الاجو	-0.12410415
-3.8820853	الصهيونيه	-0.17010412
-3.7418993	البحر	-0.41248742
-4.9512773	جارب	-0.12410415
-3.1914458	شوف	-0.2861409
-2.513197	ايش	-0.622384
-4.0903783	بيصير	-0.17477527
-3.2548938	معه	-0.41710824
-2.434163	ما	-0.45553088
-3.7418993	يطلع	-0.19674385
-5.345185	منحاول	-0.12410415
-4.9512773	المشي	-0.12410415
-3.4639251	الموضوع	-0.25446692
-5.345185	تكبس	-0.12410415
-3.166856	هناك	-0.30340865
-2.9712846	عد	-0.6744335
-3.6360912	كبير	-0.4277399
-3.772935	الشهداء	-0.20954287
-4.7273474	والجرحي	-0.12410415
-3.08043	عمل	-1.0617769
-3.6857808	متوجه	-0.20918848
-3.925554	النيران	-0.37570748
-5.345185	جات	-0.12410415
-3.5915074	حوالك	-0.3984715
-2.6516109	تم	-0.6560119
-3.8425746	التحرك	-0.2742372
-4.9512773	جارك	-0.12410415
-3.8425746	وسبعين	-0.5895359
-2.542466	ثلاثه	-0.8429776
-3.002884	رعد	-1.3441174
-2.9010842	ثمانيه	-0.623458
-3.4800124	اليات	-0.46068096
-4.359261	تمشيط	-0.3158153
-4.7273474	القدود	-0.12410415
-3.317794	اتجاه	-0.24702248
-4.9512773	الرفيع	-0.12410415
-3.1214967	لعلم	-1.3406059
-3.2748652	قيام	-0.63829523
-3.2265599	الاستطلاع	-0.5302851
-3.4800124	باستهداف	-0.40053725
-3.6602256	ارض	-0.6590336
-4.9512773	ز	-0.24729894
-4.9512773	الصافي	-0.12410415
-2.6256397	الاشاره	-0.61988324
-4.7273474	متوفره	-0.18134783
-3.2957995	حطين	-0.7514429
-3.391373	السمع	-1.2050847
-3.8425746	يعقوب	-1.048164
-3.4800124	عالسامع	-0.77493817
-4.0903783	الجنه	-0.20547317
-3.1287353	مكان	-0.2929964
-3.208648	فيها	-0.25576013
-5.345185	لعاجزين	-0.12410415
-5.345185	الجبناء	-0.12410415
-5.345185	وانما	-0.12410415
-3.6132274	زنانه	-0.69352084
-4.0903783	المرتدين	-0.42206055
-3.4967184	سلام	-0.7544198
-3.5708222	عليكم	-0.80788946
-4.7273474	ورحمه	-1.0083876
-2.923247	خلص	-0.41272405
-3.925554	هلقيت	-0.23862067
-3.6602256	باتواصل	-0.3610165
-5.345185	معهاه	-0.12410415
-4.1629367	وبارد	-0.58230287
-5.345185	ضوءيه	-0.12410415
-4.2500987	بحر	-0.27578115
-4.7273474	السودانيه	-0.26485893
-3.4967184	تامر	-0.8640763
-4.1629367	كفر	-0.28127286
-4.1629367	عزه	-0.18034142
-5.345185	اكب	-0.24729894
-3.2852063	جديد	-0.63932705
-4.7273474	صعود	-0.3781829
-4.2500987	المركافا	-0.24686584
-3.8820853	الساتر	-0.29139796
-3.925554	قام	-0.15588576
-3.3409624	المقاومه	-0.34003833
-3.2452424	باطلاق	-0.53882366
-4.7273474	مقذوفه	-0.3781829
-3.7129343	صاروخيه	-0.68186057
-2.6302476	باتجاه	-0.6279466
-3.7129343	الغلاف	-0.4812117
-3.1999617	وذلك	-0.56741303
-3.3409624	المناطق	-1.0186268
-5.345185	استلمتهم	-0.12410415
-3.6857808	الميدان	-0.42589536
-3.3782113	زيد	-1.2283384
-2.7977395	سته	-0.6829034
-2.9098141	قول	-0.92453766
-2.9418294	له	-0.30609584
-3.2647648	كذي	-0.25089112
-3.6360912	ضبط	-0.2066892
-4.9512773	وكلمه	-0.24729894
-3.4049459	عرين	-1.0831572
-2.8186734	ايضا	-0.44875053
-3.4639251	اخذ	-0.8500315
-3.8063602	التمام	-0.6155782
-2.681835	بعد	-0.6711878
-5.345185	التوزيع	-0.12410415
-4.7273474	الفتره	-0.12410415
-3.3066576	الثانيه	-0.25330192
-3.002884	تحديدا	-0.36816275
-4.9512773	شاهدت	-0.12410415
-3.8820853	دخان	-0.15842961
-3.8063602	قبال	-0.17477527
-4.359261	المرصد	-0.12410418
-4.2500987	ات	-0.22233501
-3.1999617	غاد	-0.2643095
-3.7129343	هلحين	-0.26187453
-4.505422	توصلت	-0.18134783
-3.7418993	وهو	-0.12410415
-4.9512773	وشو	-0.24729894
-3.9738622	اسمه	-0.17646521
-3.1589596	سامعني	-0.97180057
-3.1214967	المتابعه	-0.77850765
-3.1287353	عبر	-0.28601098
-3.6132274	الطريق	-0.37701198
-3.772935	الثالث	-0.3121605
-3.2852063	خلف	-0.31707448
-4.7273474	السواتر	-0.40453398
-4.1629367	يسري	-0.83839667
-2.5114317	خمسه	-0.8390066
-3.5915074	وعشرون	-0.5995349
-3.1914458	تحياتي	-1.6793472
-3.1914458	عاصف	-1.1168072
-4.505422	التمشيط	-0.52953464
-4.9512773	فريح	-0.29175523
-3.8820853	قبله	-0.75675136
-4.0282245	عرفح	-0.61918086
-3.2748652	مرشد	-1.1836109
-3.2957995	حمزه	-0.7924019
-3.151204	عز	-1.2996683
-4.7273474	مصادر	-0.2022382
-4.9512773	عبريه	-0.24495962
-3.4049459	رشقات	-0.5712885
-4.359261	اخو	-0.42319196
-4.0282245	تموضع	-0.2369092
-4.0903783	لاليه	-0.2568789
-3.8425746	مركافا	-0.29948327
-3.2748652	جنوب	-0.36976993
-4.0903783	دشم	-0.33662763
-3.4967184	كيسوفيم	-0.3936565
-3.2548938	اليه	-0.46837223
-3.4049459	محيط	-0.35202128
-3.6360912	بوابه	-0.3933086
-5.345185	النيمر	-0.28127286
-3.2748652	مكانك	-0.81097406
-3.1830935	فهد	-0.9739362
-4.505422	زلنا	-0.87468445
-3.418957	نءكد	-0.5223105
-4.7273474	بالحيطه	-0.34948406
-3.9738622	والحذر	-0.481265
-3.9738622	والانتباه	-0.37353763
-3.4800124	صفارات	-1.0363663
-4.9512773	الرعب	-0.32414085
-3.9738622	تدوي	-0.7631275
-3.6602256	عسقلان	-0.31481677
-3.107372	بدر	-1.1390752
-3.6132274	وستين	-0.49297735
-3.6857808	قنابل	-0.63570076
-4.2500987	وقال	-0.22233501
-2.7843237	لي	-0.3408856
-3.151204	ضروري	-0.37624115
-3.1287353	بده	-0.26667178
-4.2500987	اياك	-0.36298695
-5.345185	يجازيك	-0.523365
-3.4484127	خير	-0.60243416
-3.3654366	حاجه	-0.33332947
-3.6132274	ثانيه	-0.30642083
-3.5708222	الكاميرا	-0.22838514
-5.345185	بعثها	-0.12410415
-5.345185	ساعد	-0.12410415
-4.1629367	نتيجه	-0.4573641
-4.359261	هجوم	-0.19561715
-3.6857808	القسام	-0.34561878
-4.2500987	تميم	-0.2467697
-4.0282245	الخصات	-0.15839036
-3.8063602	طرفهم	-0.35553855
-3.3782113	الارض	-0.5990567
-3.3409624	مقابل	-0.22498272
-5.345185	الدير	-0.12410415
-2.8080804	كذلك	-0.38284767
-4.359261	بشريات	-0.32414085
-3.7418993	تنطلق	-0.6334554
-3.5510776	القطاع	-0.44940528
-4.0903783	مستوطنات	-0.80954665
-3.4967184	مدينه	-0.4358348
-3.5510776	وثلاثين	-0.5161835
-2.9563074	اطلاق	-0.7852822
-4.359261	دفعه	-0.58230287
-3.4639251	الصواريخ	-0.40094998
-4.7273474	نطاق	-0.12410415
-3.8425746	اراضينا	-1.1131113
-2.9867969	استطلاع	-0.6818444
-3.1287353	ايه	-0.6030608
-3.925554	باسل	-0.49622175
-3.2957995	صقر	-0.9806316
-3.3409624	قوه	-0.8111733
-3.353027	الصوت	-0.545296
-4.0282245	لقيت	-0.17314756
-4.7273474	تقعد	-0.12410415
-3.6132274	احدعش	-0.6029889
-3.5321918	واربعين	-0.5091784
-3.8820853	نوع	-0.43241242
-3.7129343	ديفيد	-0.37067673
-3.8425746	المدرسه	-0.23667906
-3.8063602	الوسطي	-0.3542239
-3.8820853	ترجل	-0.20472452
-3.1589596	ثلاث	-0.32847318
-3.4334352	جنود	-0.46078962
-3.5708222	ب	-0.2652565
-2.7059686	هو	-0.31757358
-3.1748989	حسب	-0.46925104
-5.345185	ارضك	-0.24729894
-2.561814	انت	-0.40474576
-3.925554	خذ	-0.19988964
-4.9512773	الحراس	-0.12410415
-2.7617996	عندك	-0.42394444
-3.5708222	وانا	-0.13816987
-4.9512773	باخذ	-0.12410415
-2.5758898	عند	-0.28126213
-4.2500987	الاحراش	-0.14861947
-3.2175117	زي	-0.37383908
-5.345185	بعضه	-0.12410415
-5.345185	تقتل	-0.12410415
-3.6857808	الجنود	-0.27122304
-5.345185	والمستوطنين	-0.12410415
-3.4800124	وكذلك	-0.65202683
-3.772935	الشبان	-0.2774315
-4.9512773	الساءرين	-0.12410415
-3.9738622	يقومون	-0.19741291
-5.345185	باشعال	-0.12410415
-4.9512773	الاطارات	-0.12410415
-3.9738622	قباله	-0.2328219
-3.6132274	ايوه	-0.49182847
-4.2500987	عثلاثه	-0.4005287
-3.2175117	عشر	-0.6359757
-4.0282245	شيكل	-0.2668724
-3.7418993	كيلو	-0.35784033
-5.345185	شوكولاته	-0.24729894
-3.8820853	وزاره	-0.721948
-4.1629367	الصحه	-0.23638117
-4.505422	بغزه	-0.15178354
-4.7273474	تسجيل	-0.2022382
-3.925554	وثلاثون	-0.3700768
-3.2748652	اصابه	-0.32705072
-3.5915074	جديده	-0.45989814
-4.505422	بفيروس	-0.4573641
-4.9512773	دمرناهم	-0.2022382
-4.505422	سبعطعش	-0.24495962
-3.3782113	جهاد	-0.58241343
-3.925554	الاستلام	-0.5921487
-4.9512773	جبريل	-0.12410415
-4.7273474	دوت	-0.12410415
-4.9512773	مفلسيم	-0.12410415
-4.2500987	وطرف	-0.3562738
-3.925554	تحيه	-0.31133026
-4.0282245	الصباح	-0.30859378
-3.9738622	المعطره	-0.9931476
-4.0282245	بذكر	-1.0004863
-4.505422	تحيتنا	-0.34727374
-3.925554	كم	-0.22557051
-3.6857808	انخفاض	-0.4505693
-5.345185	طايران	-0.12410415
-3.7129343	عموم	-0.96440905
-4.505422	حفد	-0.5713328
-3.0870104	عمار	-1.0796947
-4.9512773	المراقبه	-0.12410415
-3.2265599	لانه	-0.19033894
-4.2500987	اعطيك	-0.12410415
-3.166856	دير	-1.0880731
-4.0903783	بالك	-0.28969893
-3.7129343	شيء	-0.4754109
-2.9815643	الامور	-0.44912118
-4.7273474	هدول	-0.12410415
-3.1435845	ابعث	-0.5552256
-3.514093	اياه	-0.33667076
-3.317794	عياش	-1.1300066
-3.1435845	الهدوء	-0.9580803
-3.5321918	معتصم	-0.7562871
-3.2175117	يعطيك	-1.4977068
-3.8425746	العافيه	-0.7816487
-3.1589596	خالد	-0.82796824
-4.1629367	لالعلم	-0.64019865
-3.6857808	ثلث	-0.34410185
-3.5510776	مروحي	-0.41851574
-3.4967184	صفد	-0.78333133
-4.0903783	حاج	-0.5208488
-3.2957995	السلام	-0.9500955
-3.2358005	الطيران	-0.7317452
-3.4049459	الحربي	-0.51809037
-2.9514275	هذه	-0.77658063
-3.9738622	الحظات	-0.36042336
-3.114377	الخاصات	-0.43522203
-3.7129343	طب	-0.2469151
-4.7273474	خشوا	-0.12410415
-4.9512773	هايها	-0.12410415
-4.9512773	وطلعوا	-0.12410415
-4.9512773	طبوا	-0.24729894
-3.925554	فيهم	-0.375233
-4.505422	طخ	-0.16927956
-3.514093	الجيش	-0.21781828
-3.1360965	هالقيت	-0.24934457
-4.359261	انسحبوا	-0.16927956
-3.5708222	لغرب	-0.65629685
-3.2957995	سامعك	-0.6964472
-4.7273474	سيدي	-0.25002214
-2.5294175	انا	-0.3571029
-4.359261	بلغت	-0.12410418
-3.6360912	اخونا	-0.27496052
-4.9512773	قدامي	-0.12410415
-5.345185	يبلغه	-0.12410415
-4.2500987	نسر	-0.7193799
-3.2647648	اثنان	-0.65152866
-3.8063602	المتحدث	-0.31574717
-4.505422	الشجاعيه	-0.2925272
-5.345185	عيار	-0.32414085
-3.0083814	مءه	-0.6400413
-2.561814	مش	-0.47701347
-3.208648	كر	-1.2604529
-3.036964	استهداف	-0.47384197
-3.1589596	موقع	-0.48279986
-3.8820853	الفراحين	-0.22430009
-3.3066576	وجاري	-0.7354895
-4.9512773	التراب	-0.12410415
-3.8820853	الشمالي	-0.2577552
-4.0282245	لموقع	-0.16927956
-3.9738622	ناحل	-1.1705745
-4.1629367	عوز	-0.36217892
-2.5698016	مع	-0.35812423
-3.2647648	تحليق	-0.4801607
-4.359261	لالطيران	-0.33659717
-3.514093	بحمد	-1.5883662
-4.1629367	الاصابه	-0.12410418
-3.4639251	وصلت	-0.2390234
-3.6132274	هيني	-0.22109917
-4.9512773	بيقولو	-0.12410415
-3.353027	شهيد	-0.6474762
-3.3066576	منه	-0.24025172
-3.4484127	دار	-0.31318507
-4.9512773	الاربع	-0.12410415
-4.9512773	التانين	-0.24729894
-3.6360912	انتهي	-0.9988662
-3.4967184	و	-0.3879139
-5.345185	وانتشال	-0.12410415
-3.067561	جاري	-0.799362
-3.5708222	تابعه	-0.362535
-4.359261	ليهود	-0.33662763
-4.9512773	ساحل	-0.35160118
-5.345185	تحياتك	-0.24729894
-4.7273474	حاكي	-0.12410415
-4.7273474	كلامك	-0.12410415
-5.345185	فبديش	-0.12410415
-4.1629367	رحم	-0.58230287
-3.4639251	احكي	-0.44725758
-3.1435845	لما	-0.17812064
-4.0903783	يجيك	-0.17491718
-3.6857808	ابراهيم	-0.40879038
-5.345185	بيفهمك	-0.12410415
-3.1748989	اخر	-0.39830798
-5.345185	بلنسبه	-0.12410415
-5.345185	لاصابه	-0.12410415
-4.505422	شظيه	-0.12410415
-2.5799966	بس	-0.27510685
-4.9512773	كثر	-0.12410415
-5.345185	الدم	-0.12410415
-3.166856	موجود	-0.36798766
-5.345185	فكروها	-0.12410415
-5.345185	سدره	-0.12410415
-3.8425746	انتظر	-0.33353376
-2.8444445	اشاره	-0.35344988
-3.3782113	صار	-0.3817423
-4.505422	معكوا	-0.12410415
-4.505422	ردوا	-0.16927956
-4.359261	عالمخشير	-0.26965037
-3.317794	رن	-0.5585163
-2.8883097	عليه	-0.40140748
-4.0903783	عالجوال	-0.12410415
-3.5321918	جهاز	-0.26183236
-5.345185	وجوءا	-0.12410415
-5.345185	يهزوهم	-0.4744228
-2.8151135	ولا	-0.46740803
-5.345185	يهزونا	-0.4744228
-2.9612427	خاصات	-0.56924546
-3.9738622	ست	-0.17269357
-4.359261	جرافات	-0.26128966
-3.925554	D	-0.22844273
-4.9512773	nine	-0.15588576
-4.9512773	هوده	-0.12410415
-4.0282245	الجرافه	-0.17269357
-3.151204	واحده	-0.41009685
-5.345185	مدولبه	-0.12410415
-3.9738622	عسكريه	-0.14405796
-4.1629367	يتيم	-0.18134783
-3.772935	وقف	-0.19458504
-5.345185	التدريبات	-0.24729894
-4.9512773	والتجمعات	-0.2022382
-5.345185	الكبری	-0.24729894
-4.0282245	راصد	-0.44604716
-3.1999617	توكل	-1.3802435
-4.7273474	عاله	-0.27654263
-4.1629367	زال	-0.3758757
-5.345185	الشواطء	-0.12410415
-3.3292239	ل	-0.45949063
-3.3782113	وعشرين	-0.58717185
-3.6360912	وخمسين	-0.50684077
-4.359261	وخالص	-0.29050076
-3.2852063	حركه	-0.68151
-4.9512773	ناشطه	-0.3493057
-3.772935	كلهم	-0.20123245
-5.345185	كاينين	-0.2022382
-3.6857808	وراء	-0.23731424
-5.345185	ك	-0.12410415
-3.925554	تحسين	-0.5535704
-4.2500987	وضعيه	-0.6133254
-3.391373	الارسال	-0.38130337
-3.7418993	غربي	-0.46784928
-4.1629367	الريشه	-0.21561182
-3.6132274	سحاب	-1.090049
-4.7273474	نداءك	-0.16927956
-4.359261	يعافيك	-0.6784635
-4.9512773	وكانت	-0.12410415
-4.0282245	مباشره	-0.17491718
-3.8063602	وله	-1.553604
-3.5708222	الحمد	-0.9101599
-5.345185	تسديده	-0.34948406
-3.418957	الشيخ	-1.04682
-4.7273474	زويد	-0.7734961
-4.9512773	والاشتباك	-0.12410415
-3.8820853	معاهم	-0.19888698
-4.9512773	لحمزه	-0.18134783
-4.505422	رامي	-0.22233501
-3.8820853	شغل	-0.14092784
-3.9738622	مطرح	-0.14235969
-4.9512773	يخليك	-0.12410415
-4.359261	لعندك	-0.16927956
-4.2500987	طياره	-0.12410418
-4.0282245	مطار	-0.80954665
-4.359261	الصليب	-0.28264552
-3.772935	الجنوب	-0.5304532
-3.9738622	وايضا	-0.20604652
-5.345185	هنالك	-0.24729894
-3.6602256	عمليات	-0.250724
-4.9512773	خطف	-0.12410415
-4.359261	لجنود	-0.12410415
-5.345185	وعشرات	-0.12410415
-4.7273474	القتلي	-0.22233501
-4.9512773	والمصابين	-0.12410415
-3.208648	بين	-0.3714593
-3.3782113	وقت	-0.3324739
-3.107372	احنا	-0.22674334
-4.9512773	منحول	-0.24729894
-3.7129343	اثنا	-1.0594242
-3.7129343	سقوط	-0.36104432
-3.418957	واضح	-0.37388694
-4.0282245	تماما	-0.5041569
-3.925554	مدرسه	-0.15178354
-3.7129343	يافا	-0.637832
-3.6360912	بعدين	-0.17893665
-4.2500987	المحل	-0.2022382
-2.9563074	ياله	-0.5105611
-3.514093	نضال	-1.0621582
-4.359261	الاشكاليه	-0.15178354
-4.9512773	عيله	-0.2022382
-5.345185	درمه	-0.12410415
-5.345185	شراط	-0.12410415
-3.6602256	مجموعه	-0.5862173
-3.1360965	الشباب	-0.2606435
-4.359261	جاريه	-0.5713328
-4.505422	وانباء	-0.16141638
-4.0903783	اوليه	-0.39502352
-3.7129343	تفيد	-0.32399705
-3.208648	خالص	-1.1130874
-4.1629367	واطيب	-0.92662144
-4.0903783	ساعات	-0.5463786
-5.345185	باسلحه	-0.24729894
-4.7273474	القنص	-0.28127286
-3.5321918	قاسم	-1.0069612
-4.7273474	اعصار	-0.59333205
-2.6565044	وين	-0.49058786
-4.7273474	مناصب	-0.2022382
-3.5708222	بالقرب	-1.0774685
-4.2500987	المكب	-0.3151063
-3.2852063	منطقه	-0.25210682
-5.345185	الزراعه	-0.12410415
-3.4334352	بيت	-0.5362456
-4.1629367	حانون	-0.3694214
-4.0282245	اكبر	-0.8901712
-4.9512773	دان	-0.12410415
-4.7273474	قدامك	-0.2022382
-3.3409624	المنادي	-0.6202085
-4.0903783	لحطين	-0.63765764
-3.9738622	صمد	-0.41265717
-2.9867969	غير	-0.7568461
-2.5481803	والا	-0.4113545
-2.9662344	فيش	-0.39881822
-3.0550623	اشي	-0.29487714
-4.7273474	الاثناء	-0.13864665
-3.353027	تقوم	-0.30733487
-4.7273474	القلب	-0.2022382
-3.6132274	العسكريه	-0.22483239
-4.359261	شراب	-0.2467697
-5.345185	العسل	-0.18134783
-3.772935	النار	-0.4403962
-4.2500987	زالت	-0.46390125
-3.772935	اليهود	-0.66307414
-3.4049459	الخط	-0.93169075
-3.925554	الزاءل	-0.44476652
-3.4800124	وفي	-0.2903704
-3.8063602	بيان	-0.1598607
-4.2500987	لكتاءب	-0.36719736
-5.345185	الوطنيه	-0.2022382
-4.9512773	مستو	-0.12410415
-4.2500987	مسافه	-0.21553217
-4.7273474	قريبا	-0.18134783
-5.345185	الشاطي	-0.24729894
-5.345185	بتاكد	-0.12410415
-3.1830935	معاك	-0.3397712
-4.7273474	تيب	-0.12410415
-3.6857808	اروح	-0.23259753
-3.8820853	اجيب	-0.2626777
-3.4334352	النقطه	-0.31330663
-4.9512773	والعد	-0.12410415
-4.505422	مكتمل	-0.24729894
-3.772935	سمعني	-0.3180203
-4.7273474	ملحوظ	-0.3639347
-3.8063602	مكثف	-0.27230322
-4.0282245	لاستطلاع	-0.22557051
-4.359261	المحور	-0.22233501
-4.2500987	اخبارك	-0.5378602
-5.345185	عارفي	-0.12410415
-4.1629367	ضمن	-0.21009092
-4.505422	حمله	-0.12410415
-3.391373	قرب	-0.24757552
-3.9738622	حاجز	-0.19057609
-5.345185	زماط	-0.5369317
-4.7273474	هالو	-0.61322683
-4.2500987	اجت	-0.16141638
-3.5321918	رساله	-0.20591874
-3.8063602	منخفض	-0.4124121
-4.9512773	هاني	-0.12410415
-3.9738622	هامرات	-0.46074566
-4.9512773	بحصوص	-0.12410415
-5.345185	الكوادكفتر	-0.12410415
-3.2452424	هي	-0.2124022
-3.4334352	خارج	-0.3521306
-3.5510776	الاختصاص	-0.32080746
-3.6132274	وليد	-0.6482241
-3.1914458	قديش	-0.31307986
-4.359261	المنسوب	-0.4744228
-3.6360912	باله	-0.3346862
-3.317794	لو	-0.16904989
-2.8011591	كل	-0.51999855
-4.505422	كدا	-0.18134783
-5.345185	باسمه	-0.12410415
-4.0903783	جواد	-0.24625492
-3.073948	هاي	-0.1968084
-2.8222628	عشان	-0.23001364
-3.8425746	ترجع	-0.18436487
-3.9738622	يحيا	-0.26731697
-2.8925264	ال	-0.49923322
-2.9815643	عل	-0.6399044
-3.8063602	ثمنيه	-0.4132544
-5.345185	ضابطه	-0.12410415
-5.345185	بعرفش	-0.12410415
-5.345185	الحبال	-0.12410415
-5.345185	ضبطتش	-0.12410415
-4.0903783	معانا	-0.12410415
-3.151204	هالحين	-0.21803394
-2.8841338	بدي	-0.31970146
-5.345185	لزم	-0.12410415
-3.5708222	الامر	-0.18267362
-4.2500987	بتروح	-0.12410418
-4.7273474	لجعفر	-0.12410415
-4.1629367	بتجيب	-0.15588576
-5.345185	وبتحرك	-0.12410415
-3.6132274	علينا	-0.26648724
-4.359261	دغري	-0.12410415
-3.0489454	خطاب	-1.103429
-3.772935	اعطيني	-0.22111492
-5.345185	الرموز	-0.24729894
-3.7129343	جاهزه	-0.19625923
-5.345185	تواصلوه	-0.12410415
-5.345185	ويبقي	-0.12410415
-4.0282245	غرفه	-0.34787545
-3.7129343	صهيب	-0.66047674
-5.345185	فصله	-0.12410415
-3.114377	عندي	-0.29048735
-5.345185	لطريقه	-0.12410415
-4.9512773	سخر	-0.5713328
-3.3409624	سيف	-1.0648862
-3.1435845	مسموع	-1.1658099
-3.208648	هايني	-0.3786874
-3.9738622	الباب	-0.29365388
-5.345185	الامير	-0.32171586
-3.4049459	اشارات	-0.31562877
-4.9512773	التوغل	-0.12410415
-4.9512773	ابصر	-0.12410415
-2.8186734	مين	-0.5524073
-3.3654366	جاي	-0.3404709
-3.7129343	هيو	-0.21360797
-4.0903783	بيزعق	-0.39733213
-3.4334352	قاعد	-0.1857938
-3.0429132	عنده	-0.3161896
-4.359261	حرقه	-0.28928182
-3.002884	شويه	-0.3312901
-5.345185	وبيرجع	-0.12410415
-4.505422	تسعين	-0.28127286
-3.6857808	باقولك	-0.18119808
-3.6132274	السياره	-0.22483239
-3.4800124	التي	-0.28070813
-4.359261	اطلق	-0.15588576
-3.353027	عليها	-0.32202226
-3.5510776	قوات	-0.3915131
-3.418957	الاحتلال	-0.25621748
-4.1629367	بلده	-0.35122687
-3.772935	جماعه	-0.23547308
-3.6857808	جنين	-0.43795264
-3.4334352	الشرقيه	-0.5207779
-3.5510776	الشماليه	-0.41473
-4.505422	لسيف	-0.26395378
-4.2500987	ناتج	-0.7583941
-2.804606	عن	-0.33323127
-3.3066576	احد	-0.5596412
-4.2500987	بالقاء	-0.21171986
-4.1629367	قنبله	-0.27959523
-4.359261	راجل	-0.35896742
-4.2500987	بيرن	-0.24562672
-5.345185	هيثم	-0.12410415
-3.8425746	النداء	-0.52351385
-3.5510776	اكثر	-0.7798036
-3.3409624	مره	-0.38745975
-3.8425746	نذكر	-0.36364943
-3.772935	مجاهدينا	-0.20096436
-4.0903783	باستمرار	-0.25892636
-3.772935	نجم	-0.87768596
-3.925554	المسجد	-0.21748209
-3.9738622	الاقصي	-0.28928182
-4.7273474	المبارك	-0.16141638
-5.345185	غرم	-0.12410415
-4.9512773	تسقط	-0.12410415
-4.9512773	الامطار	-0.12410415
-4.9512773	وانخفاض	-0.12410415
-5.345185	لدرجات	-0.12410415
-4.2500987	الفلسطينيه	-0.18062873
-3.2647648	صاروخ	-0.3674632
-4.505422	العيار	-0.523365
-4.9512773	الثقيل	-0.16927956
-3.4484127	وجار	-1.1370542
-3.925554	مبني	-0.27959523
-2.833212	بشكل	-0.68590504
-4.359261	المستهدف	-0.18134783
-3.6132274	الاخر	-0.43470728
-3.6360912	سماع	-0.56913483
-4.0282245	دوي	-0.6157371
-3.6857808	انفجار	-0.36953476
-3.6132274	لسه	-0.4386552
-4.0282245	شيخ	-0.33038875
-3.107372	الجهاز	-0.31763878
-3.925554	ياخذ	-0.18134783
-4.9512773	بطريقه	-0.12410415
-4.1629367	لاركان	-0.50023216
-3.2647648	اتنين	-0.47150794
-3.0870104	خليه	-0.27780834
-4.7273474	يبلغوا	-0.12410415
-3.925554	نزلوا	-0.18134783
-3.5510776	الصبح	-0.23995656
-3.7129343	بكر	-0.7428018
-4.0282245	عصام	-0.23957646
-3.925554	اسمعك	-0.27708766
-3.5510776	بكل	-0.7702795
-4.505422	وضوح	-0.3528389
-4.9512773	الوارده	-0.12410415
-4.0903783	صاروخين	-0.36693567
-5.345185	باتجاء	-0.34948406
-4.9512773	سديروت	-0.28127286
-4.0282245	اعتراض	-0.21171986
-4.9512773	والاخر	-0.19741291
-4.505422	سقط	-0.22233501
-4.1629367	حدود	-0.2568789
-3.7129343	قطاع	-0.89324784
-3.3409624	غزه	-0.41849262
-3.114377	لم	-0.49516842
-4.1629367	لجيب	-0.32535273
-4.505422	امكن	-0.25344077
-4.2500987	الاسراع	-0.15178354
-4.0282245	تنتين	-0.3308037
-5.345185	تشغلش	-0.12410415
-4.7273474	خال	-0.37404284
-3.7129343	ولعلم	-1.3295019
-3.1435845	خاصاتنا	-0.48551914
-3.8063602	انتهاء	-0.21671806
-3.5510776	شرطه	-0.8940567
-3.5708222	انس	-0.8928323
-3.4639251	هدوء	-0.73604345
-5.345185	واثناعشر	-0.24729894
-4.505422	بتار	-0.25892636
-4.359261	تنعش	-0.28928182
-3.2748652	وعد	-1.0812262
-3.1589596	طاءره	-0.542471
-4.0282245	كوادكوبتر	-0.354436
-4.0903783	ارتفاع	-0.34727374
-4.0903783	المنطاد	-0.30214825
-3.7418993	العسكري	-0.27168524
-3.1830935	فوق	-0.21632248
-4.505422	نفي	-0.18134783
-3.9738622	عطايا	-0.8249967
-4.0903783	مرتدين	-0.54185164
-4.505422	بدكم	-0.12410415
-5.345185	تغادروا	-0.12410415
-5.345185	قولتش	-0.12410415
-4.9512773	وتامين	-0.24729894
-4.1629367	الاماكن	-0.16497292
-3.7418993	المعروفه	-0.42221364
-3.772935	الاصابات	-0.2713577
-3.4639251	التعامل	-0.4014611
-4.505422	معاها	-0.19017807
-5.345185	دفعهم	-0.12410415
-5.345185	ونتعامل	-0.12410415
-3.5321918	معهم	-0.30544773
-3.3066576	عبيده	-0.71554196
-4.0903783	عزيز	-0.86900467
-4.0282245	امورك	-0.25344077
-3.8820853	طمني	-0.25643435
-4.359261	لاله	-0.27907088
-4.505422	يرضي	-0.6251709
-4.7273474	يبارك	-1.0239674
-3.8425746	فيك	-0.39622727
-5.345185	helo	-0.24729894
-3.8063602	وصلوا	-0.1722235
-4.359261	ولد	-0.88413787
-4.9512773	الدفعه	-0.24729894
-3.6132274	شباب	-0.49031442
-3.5915074	خليل	-0.5490359
-3.6602256	الرساله	-0.24765386
-4.9512773	نرجو	-0.24729894
-4.2500987	صمت	-0.32414085
-3.8425746	اطيب	-0.8754689
-3.5321918	كلم	-0.3822025
-3.8425746	احدعشر	-0.5520347
-3.6132274	يوجد	-0.22790222
-3.2548938	تعال	-0.34358165
-5.345185	تعايل	-0.12410415
-5.345185	المجدل	-0.12410415
-3.6132274	الاستهداف	-0.41528434
-3.925554	كروز	-0.29742175
-4.0282245	بعبوه	-0.720659
-4.9512773	ناسفه	-0.47540852
-3.514093	علاء	-0.58044356
-4.9512773	لعلاء	-0.12410415
-4.9512773	حراس	-0.4744228
-4.0282245	باص	-0.2328219
-4.2500987	الجمس	-0.27959523
-4.7273474	وصوله	-0.12410415
-4.2500987	لاختصاص	-0.21307266
-5.345185	حتبعث	-0.12410415
-3.3654366	الراجل	-0.2508753
-2.833212	ان	-0.65829515
-4.0282245	شاء	-1.6827102
-3.4334352	يقوم	-0.35667628
-5.345185	يوفقك	-0.12410415
-3.418957	عدي	-0.84467584
-3.1914458	بكره	-0.22783254
-3.0253043	سعد	-1.1526339
-3.6602256	سلامات	-0.4537743
-4.359261	تزعق	-0.3781829
-4.7273474	وكان	-0.22233501
-4.9512773	خدش	-0.12410415
-4.9512773	بيرود	-0.12410415
-4.359261	مروحيه	-0.14405796
-3.7418993	وثمانين	-0.6680392
-4.0903783	الكواد	-0.44574162
-4.505422	كابتر	-0.21806614
-3.9738622	الفاصل	-0.41380855
-3.5321918	عوده	-0.32831132
-4.0903783	الهرميز	-0.5903118
-4.7273474	وموقع	-0.12410415
-3.7129343	صوفا	-0.30934796
-4.9512773	وقذاءف	-0.12410415
-3.8820853	الهاون	-0.29141077
-4.1629367	بتيجي	-0.12410418
-3.8820853	الدار	-0.24286832
-5.345185	قصدره	-0.12410415
-4.505422	بستناك	-0.18134783
-4.505422	الدوار	-0.12410418
-4.359261	بالعجل	-0.39733213
-3.8063602	انتوا	-0.21513295
-3.3066576	اعلام	-0.5779409
-2.9763942	العدو	-0.49032295
-3.8063602	يتحدث	-0.47099242
-4.0282245	حدث	-0.27547407
-4.9512773	الباجر	-0.2022382
-2.8520975	تسعه	-0.586006
-4.359261	كرمي	-0.39240828
-4.505422	سكنيه	-0.12410415
-4.0282245	قصدي	-0.20472452
-5.345185	ملونه	-0.12410415
-4.9512773	والثلاثه	-0.12410415
-3.8425746	كوجار	-0.48981273
-3.5708222	وجود	-0.26463068
-3.3409624	اصابات	-0.39919758
-4.7273474	دي	-0.34948406
-5.345185	ناين	-0.12410415
-4.9512773	وكباش	-0.24729894
-4.9512773	مدولب	-0.12410415
-3.6360912	خان	-1.4350877
-4.2500987	يونس	-0.4361654
-5.345185	والقيام	-0.12410415
-4.505422	باعمال	-0.18134783
-4.505422	تجريف	-0.26965037
-4.7273474	التام	-0.5111077
-3.6360912	مكتب	-0.33972064
-3.772935	وبعد	-0.23960985
-3.925554	الاسلكي	-0.35160118
-4.505422	مركزيات	-0.3667454
-3.2358005	كله	-0.31130546
-3.317794	محمد	-0.39044353
-3.418957	عالاخري	-0.8554393
-4.505422	سند	-0.53745395
-4.1629367	التكرار	-0.1461047
-2.918723	اي	-0.4482284
-4.9512773	جوني	-0.2022382
-3.7129343	معاذ	-0.4095284
-4.2500987	موقف	-0.14861947
-3.9738622	الحظه	-0.5015177
-3.772935	الحمداله	-0.27648968
-3.8063602	صاءب	-0.9010954
-5.345185	طاب	-0.24729894
-5.345185	مدخلين	-0.24729894
-3.3292239	رقم	-0.33987102
-4.359261	احدي	-0.24495962
-4.9512773	الحشين	-0.65051407
-4.7273474	ستعش	-0.20686698
-3.8063602	تعميم	-0.50686413
-3.772935	التعميم	-0.49190655
-5.345185	ويجيبوا	-0.12410415
-4.7273474	الاسماء	-0.2022382
-3.925554	بقي	-0.15842961
-3.8425746	الحدث	-0.3290887
-3.4800124	الاول	-0.20033108
-5.345185	يعرفوا	-0.12410415
-3.2852063	هم	-0.26843533
-3.5708222	عكا	-0.6687509
-4.7273474	حساب	-0.12410415
-3.925554	انتقال	-0.14092784
-3.514093	هرميز	-1.1712602
-4.0903783	وخمسون	-0.36846468
-3.8063602	اشتعال	-0.66279894
-4.0903783	كثيف	-0.15842961
-3.5510776	مناطق	-0.31992856
-4.9512773	مشروع	-0.12410415
-5.345185	لاهيا	-0.14861947
-3.2957995	تقريبا	-0.22483465
-4.7273474	جوك	-0.3156548
-4.0282245	متاكد	-0.14092784
-3.391373	كافه	-0.58990216
-5.345185	واست	-0.12410415
-5.345185	واستعداد	-0.12410415
-3.1214967	غرب	-0.4428916
-3.4049459	جوه	-0.28853914
-3.6360912	تاكد	-0.33020118
-3.772935	مرصد	-0.33567497
-3.3066576	جعفر	-0.6965068
-3.1914458	امبارح	-0.2591878
-2.8925264	تواصل	-0.59436536
-5.345185	بثلاتميه	-0.12410415
-3.1435845	متابعه	-0.5216513
-3.4334352	ميتين	-0.32614774
-3.925554	واثنين	-0.20744045
-5.345185	لمعي	-0.12410415
-4.0282245	الفرعيات	-0.18436487
-3.5915074	ابلاغ	-0.3642825
-4.7273474	باخر	-0.62262696
-3.391373	طرفه	-0.35025036
-4.505422	ابتداء	-0.5713328
-3.4967184	برق	-0.97605765
-4.0903783	العيون	-0.14235969
-3.5321918	الجهوزيه	-0.2517155
-3.925554	اسود	-0.15178354
-4.7273474	الون	-0.12410415
-4.359261	وترجل	-0.21970554
-4.9512773	عديد	-0.12410415
-3.8063602	الجامع	-0.35077357
-5.345185	متاكدينه	-0.12410415
-4.9512773	الجرف	-0.12410415
-5.345185	جوش	-0.12410415
-4.505422	الساحلي	-0.15588576
-3.514093	لشمال	-0.66554415
-4.7273474	اجوا	-0.12410415
-4.505422	الظاهر	-0.12410415
-3.9738622	زوارق	-0.2702616
-5.345185	مطاطيه	-0.12410415
-2.9920933	او	-0.17598684
-5.345185	عالشط	-0.12410415
-5.345185	الشط	-0.12410415
-4.359261	غربه	-0.16927956
-3.9738622	دبر	-0.28011072
-4.9512773	تسهل	-0.12410415
-3.1214967	التواصل	-0.6130711
-3.8820853	الرجال	-0.23739499
-4.1629367	وكل	-0.19017807
-4.9512773	قدوم	-0.12410415
-3.772935	انهاء	-0.5188367
-3.9738622	الدوريه	-0.3646375
-4.2500987	عبود	-0.22557051
-3.514093	الواء	-0.3421176
-3.5510776	هلال	-0.90285754
-5.345185	حالاقيك	-0.12410415
-3.4049459	اسمع	-0.40780914
-4.0903783	لحاله	-0.12410415
-4.9512773	تعون	-0.12410415
-3.925554	بوركت	-0.22844273
-4.505422	جهودك	-0.2568789
-4.0282245	ا	-0.24744536
-5.345185	مشوارنا	-0.12410415
-4.1629367	اشكاليه	-0.19561715
-3.3654366	يمكن	-0.22134607
-3.6132274	تكون	-0.15302792
-5.345185	الحفره	-0.12410415
-3.1287353	تحت	-0.32469696
-3.4639251	نقطه	-0.26051408
-3.6857808	محمود	-0.27380824
-3.093692	معي	-0.41491497
-4.0282245	الجوال	-0.2628724
-3.8425746	رايق	-0.2244739
-4.7273474	مضبطه	-0.12410415
-3.7418993	الدنيا	-0.18116173
-5.345185	وسهر	-0.12410415
-4.9512773	بامكان	-0.12410415
-4.9512773	صبح	-0.12410415
-4.1629367	الكاميرات	-0.2022382
-5.345185	نوعها	-0.24729894
-4.2500987	المفروض	-0.12410415
-4.505422	لعله	-0.3781829
-2.7977395	انشاله	-0.5111924
-3.2452424	رد	-0.59614027
-4.1629367	الواسطه	-0.40316164
-3.5321918	الاخري	-0.4456831
-4.9512773	تجينا	-0.12410415
-3.772935	تعليمات	-0.2638583
-3.8063602	قسم	-0.53100204
-4.7273474	غلط	-0.12410415
-4.2500987	يعطيكم	-0.95154405
-3.8425746	عواحد	-0.46509925
-3.353027	توجه	-0.27870676
-3.7418993	لهم	-0.17506993
-3.5708222	فارس	-0.41964835
-3.9738622	يبدو	-0.16129789
-3.0139494	خليك	-0.4825465
-3.1999617	راح	-0.23090994
-4.505422	ابلغك	-0.12410415
-4.505422	نعمه	-0.15588576
-4.2500987	اخبار	-0.15178354
-3.4800124	عزام	-0.68968636
-3.6857808	قصف	-0.21207756
-4.505422	مدفعي	-0.12410415
-4.505422	الفخاري	-0.18134783
-4.2500987	مجال	-0.1966559
-4.0903783	اشوفك	-0.30268237
-4.0282245	اجيك	-0.21059196
-5.345185	ومجاهد	-0.12410415
-3.08043	بدنا	-0.1938301
-5.345185	نقعود	-0.12410415
-3.6602256	ربع	-0.82416695
-3.2748652	ساعه	-0.32941768
-3.3782113	مهاجر	-0.72585994
-4.1629367	الانذار	-0.8547275
-3.925554	تل	-0.5356086
-5.345185	الربيع	-0.19017807
-3.8820853	المحتل	-0.31973276
-4.359261	اسلم	-0.22233501
-3.6132274	القدس	-0.32016012
-4.9512773	بنسبه	-0.12410415
-4.0282245	زورق	-0.18134783
-5.345185	بيختفوا	-0.12410415
-4.1629367	بيجي	-0.12410418
-5.345185	بعقبال	-0.12410415
-4.9512773	الزهره	-0.12410415
-3.391373	بعيد	-0.33066708
-3.8425746	استمرار	-0.3601402
-3.9738622	الضفه	-0.17269357
-4.9512773	ولعت	-0.12410415
-4.505422	اخوان	-0.16141641
-5.345185	مولعه	-0.24729894
-4.359261	النمر	-0.4683933
-3.353027	باذن	-1.1080989
-5.345185	اخد	-0.12410415
-5.345185	العمله	-0.24729894
-3.925554	لحظات	-0.17855208
-4.1629367	زراعيه	-0.5406054
-3.772935	حال	-0.59768337
-3.8820853	الرد	-0.30835983
-3.8425746	عطيه	-0.46292952
-3.5510776	كنت	-0.3861358
-4.7273474	فينا	-0.2022382
-5.345185	موعيد	-0.12410415
-5.345185	اجاب	-0.12410415
-3.925554	شفته	-0.1934803
-4.9512773	معلقه	-0.12410415
-3.2852063	قريب	-0.37537202
-5.345185	يعيك	-0.12410415
-5.345185	العايفهط	-0.12410415
-3.0870104	كمان	-0.3311004
-4.1629367	باروح	-0.12410418
-4.359261	بقول	-0.31601146
-4.2500987	وسام	-0.26485893
-3.9738622	بتقول	-0.37570748
-4.7273474	الملف	-0.12410415
-5.345185	تقلق	-0.12410415
-3.925554	المسافه	-0.22557051
-4.9512773	مدركه	-0.26965037
-3.9738622	بازعق	-0.5243109
-4.2500987	ترد	-0.22233501
-4.9512773	هرمس	-0.50023216
-3.8820853	ماهول	-0.2783495
-3.8063602	تكرار	-0.63978183
-5.345185	قايلين	-0.12410415
-3.7418993	بالمره	-0.2568789
-4.9512773	الاحترام	-0.12410415
-3.1435845	شمال	-0.53431857
-3.8820853	عبداله	-0.37258416
-3.4800124	حواليك	-0.29365388
-4.2500987	جاد	-0.7648397
-4.7273474	اقتراب	-0.28127286
-3.5915074	لعد	-0.76805973
-4.7273474	عالواحد	-0.2760856
-3.166856	قال	-0.83724755
-4.9512773	عالاشاره	-0.12410415
-3.7129343	حين	-0.58719593
-4.2500987	لاخر	-0.26479787
-3.6857808	يدخل	-0.5864956
-4.359261	بقاءك	-0.5098057
-4.0903783	والاستعداد	-0.17460188
-4.1629367	نار	-0.48992905
-5.345185	الرعاه	-0.12410415
-4.9512773	الاغنام	-0.17460188
-4.7273474	سلمان	-0.12410415
-4.2500987	المعنين	-0.2328219
-4.9512773	انها	-0.12410415
-4.1629367	مفاجء	-0.35580885
-4.9512773	مرق	-0.12410415
-3.4967184	متر	-0.38871756
-4.9512773	سانتي	-0.24729894
-3.2548938	تحرك	-0.27457696
-5.345185	تنكين	-0.12410415
-4.359261	مشملات	-0.16141638
-4.1629367	العالي	-0.24078394
-4.0282245	عباره	-0.60464865
-4.359261	غاره	-0.21970554
-4.9512773	وهميه	-0.44192138
-4.2500987	ظايل	-0.12410415
-4.9512773	معايه	-0.12410415
-3.5708222	المدفعيه	-0.24705692
-3.8820853	تطلق	-0.21748209
-3.8425746	العين	-0.28821525
-3.8425746	هات	-0.39473704
-4.359261	غاذ	-0.16927956
-4.7273474	مي	-0.12410415
-5.345185	جامعات	-0.12410415
-4.0282245	قصدك	-0.33391985
-4.0282245	الاربعه	-0.24746788
-4.2500987	الطواغيت	-0.17491718
-3.317794	العمل	-0.33932832
-3.8425746	الجيد	-0.27566913
-5.345185	بموجه	-0.12410415
-3.4967184	لكم	-0.3262968
-3.925554	منا	-0.30648273
-4.359261	عاد	-0.15588576
-4.2500987	بابعث	-0.26072526
-3.3654366	حدا	-0.29051772
-5.345185	البطاريتين	-0.12410415
-5.345185	يسلمك	-0.40959314
-4.2500987	وصلتك	-0.24562672
-3.5321918	متحرك	-0.33087474
-4.2500987	اجهز	-0.16141638
-3.4639251	شارع	-0.23984393
-3.1748989	بالضبط	-0.38204885
-3.3292239	اول	-0.28930387
-4.7273474	بتجاه	-0.12410415
-3.4639251	صلاح	-0.40127736
-4.7273474	الدين	-0.50896686
-5.345185	لمدرسه	-0.12410415
-3.6360912	والان	-0.20963237
-4.1629367	الماسوره	-0.8258352
-4.9512773	التقاء	-0.24729894
-5.345185	جبر	-0.12410415
-4.359261	سالم	-0.29781687
-5.345185	مصطف	-0.12410415
-4.2500987	جندين	-0.19017807
-4.9512773	صهيونين	-0.12410415
-4.0282245	عمليه	-0.23087011
-4.9512773	طعن	-0.16927956
-4.9512773	بالقدس	-0.12410415
-3.5321918	المحتله	-0.56224763
-4.2500987	والعدو	-0.16141638
-3.6857808	الصهيوني	-0.3523057
-3.6360912	لحتي	-0.90966177
-4.9512773	تيمرات	-0.12410415
-5.345185	دقهن	-0.12410415
-5.345185	وازعق	-0.12410415
-4.0282245	موجه	-0.19214807
-3.6132274	جوا	-0.29387152
-3.8425746	سيد	-1.1922449
-3.7418993	تلاته	-0.23446311
-5.345185	لجبات	-0.12410415
-4.505422	تيوتا	-0.12410415
-4.505422	مشودر	-0.12410415
-4.359261	عنصر	-0.26965037
-4.0282245	جيش	-0.46702972
-4.9512773	الرده	-0.32535273
-4.359261	الكتيبه	-0.2328219
-4.0282245	الدفاع	-0.23214902
-5.345185	الجوي	-0.12410415
-3.6360912	مشكله	-0.32135037
-4.2500987	التاكد	-0.22233501
-3.8425746	الغرب	-0.33341673
-3.4484127	موضوع	-0.267183
-5.345185	الطابعه	-0.12410415
-5.345185	مالها	-0.12410415
-4.359261	منصور	-0.17491718
-4.7273474	ورق	-0.12410415
-4.0903783	قاعدين	-0.19561715
-3.2647648	شي	-0.39370465
-4.505422	متواصل	-0.12410415
-4.505422	بالتواصل	-0.12410415
-5.345185	المحجر	-0.12410415
-3.772935	عالارض	-0.37463942
-3.6602256	القوات	-0.17969728
-4.0903783	لابو	-0.1461047
-4.7273474	ولاله	-1.1511164
-4.359261	لفوق	-0.16927956
-4.7273474	وشمال	-0.12410415
-4.7273474	البديل	-0.12410415
-3.8820853	عالمكان	-0.16351709
-4.359261	بديل	-0.16141638
-3.4639251	جهز	-0.23883377
-4.0903783	مءتين	-0.24686584
-4.505422	صياد	-0.16927956
-4.7273474	الطلق	-0.18134783
-5.345185	سماعه	-0.24729894
-3.5321918	خلاص	-0.29451948
-4.0903783	جزاك	-0.9826214
-3.3782113	تابع	-0.26430187
-3.514093	بالاضافه	-0.44342542
-5.345185	التوفر	-0.24729894
-4.9512773	مبادره	-0.2022382
-4.7273474	وحد	-0.18134783
-5.345185	بالخطه	-0.24729894
-5.345185	باخلاء	-0.24729894
-3.8063602	اخلاء	-0.21020894
-4.9512773	رباح	-0.12410415
-4.505422	القراره	-0.17314756
-5.345185	المتا	-0.12410415
-3.8425746	الحذر	-0.45411798
-4.0903783	الساحل	-0.2908802
-4.9512773	مليانه	-0.12410415
-3.6360912	شغال	-0.29365388
-5.345185	كلك	-0.12410415
-3.8820853	بعث	-0.2760856
-3.925554	الداخل	-0.38188064
-3.4800124	انسحاب	-0.6872199
-4.7273474	الغالي	-0.12410415
-5.345185	يتكون	-0.12410415
-3.8425746	دقاءق	-0.3115631
-3.7418993	البوابه	-0.30424795
-3.772935	العامله	-0.42229834
-5.345185	توءكد	-0.12410415
-4.1629367	امام	-0.15588576
-5.345185	عينها	-0.12410415
-3.9738622	الباص	-0.22173412
-4.1629367	الاداره	-0.48557645
-3.7129343	خاصاتك	-0.28684083
-4.359261	انتها	-0.60544246
-4.0903783	دمتم	-0.3665604
-5.345185	بعز	-0.2022382
-4.359261	شملن	-0.87236285
-3.8425746	الفلوجه	-0.9010954
-3.9738622	عامر	-0.47916266
-4.7273474	لمقر	-0.34948406
-4.0903783	الشرطه	-0.29604158
-4.7273474	حا	-0.2022382
-3.9738622	تلفون	-0.3404709
-5.345185	مسجل	-0.12410415
-3.6602256	الشهيد	-0.54232126
-4.505422	باكلمه	-0.12410415
-3.7418993	كلمته	-0.17477527
-4.7273474	لقط	-0.12410415
-3.4334352	معاي	-0.286354
-4.2500987	التركيز	-0.14861947
-4.7273474	وتعال	-0.28127286
-4.505422	بيقولك	-0.15178354
-4.9512773	المشاكل	-0.12410415
-4.1629367	اقسم	-0.33659717
-5.345185	حصلته	-0.12410415
-4.9512773	سلمات	-0.2022382
-4.9512773	حج	-0.12410415
-3.4334352	رشقه	-0.88189447
-4.505422	التجهيز	-0.21307266
-3.925554	وانتظار	-0.69211763
-5.345185	عالواقع	-0.12410415
-3.6857808	الغربيه	-0.46960893
-4.505422	لمدينه	-0.40569863
-4.9512773	مرتبه	-0.12410415
-3.5915074	امجد	-0.65538365
-4.9512773	ينطلق	-0.12410415
-5.345185	الخت	-0.12410415
-4.7273474	بات	-0.2022382
-4.9512773	ابني	-0.4744228
-4.359261	الجيده	-0.2760856
-4.2500987	واعلامنا	-0.22844273
-5.345185	حترجع	-0.12410415
-4.505422	اختصاصك	-0.4573641
-3.8063602	حط	-0.25371242
-3.6857808	الداخليه	-0.3284762
-4.2500987	تاعت	-0.16141638
-3.2647648	عندنا	-0.24109474
-4.505422	جراء	-0.23214902
-4.359261	دراجه	-0.4490796
-4.2500987	ناريه	-0.25892636
-4.505422	لمجاهد	-0.36719736
-3.5510776	مجاهد	-0.77563083
-4.359261	تعا	-0.21970554
-4.7273474	لعندي	-0.18134783
-3.2548938	حد	-0.23610254
-3.8425746	تقدم	-0.20547317
-3.6360912	خاصه	-0.21619229
-5.345185	منط	-0.12410415
-3.2647648	روح	-0.3636733
-4.7273474	حماد	-0.12410415
-3.2452424	معاه	-0.2405344
-4.0903783	قريبه	-0.1870644
-4.0903783	اليتين	-0.36696783
-3.8820853	YPR	-0.6504476
-4.9512773	طولش	-0.2022382
-3.3654366	فش	-0.3001398
-5.345185	نشر	-0.12410415
-4.0282245	الاسناد	-0.18134783
-4.0282245	والمتابعه	-0.29073507
-3.925554	التميم	-0.5079207
-4.7273474	التسلسل	-0.41605136
-3.8425746	مهند	-0.5560795
-4.505422	يذكر	-0.22109917
-4.9512773	والعين	-0.3781829
-3.8820853	الثالثه	-0.2588577
-5.345185	التم	-0.12410415
-3.2548938	شو	-0.4127922
-4.359261	كساحه	-0.8351042
-3.7418993	تحمل	-0.56044626
-4.0903783	m	-1.6047566
-3.7129343	ستين	-0.54769444
-4.359261	الدولي	-0.21553217
-3.6360912	يبقي	-0.7440272
-4.0903783	جايك	-0.4386552
-4.505422	وجه	-0.5369317
-4.0282245	السرعه	-0.31013548
-3.5510776	الانتظار	-0.41057405
-3.5708222	باكون	-0.40364552
-4.9512773	فكرتك	-0.12410415
-3.6602256	اصبر	-0.30648273
-3.4049459	انزل	-0.6770879
-5.345185	اسلا	-0.12410415
-3.772935	الخروج	-0.2961035
-3.9738622	بالنداء	-0.3219875
-3.925554	ثم	-0.33391985
-3.2452424	اسد	-0.6819446
-4.359261	وثلاث	-0.16141638
-4.7273474	كناتر	-0.18134783
-3.5915074	واقف	-0.2775465
-4.1629367	تحركش	-0.20547317
-5.345185	خطوه	-0.12410415
-3.5915074	تمركز	-0.26975885
-5.345185	الميركافه	-0.12410415
-5.345185	المربض	-0.4744228
-4.1629367	الجنوبي	-0.17491718
-4.0282245	اناره	-0.30835983
-4.1629367	الزوارق	-0.6678712
-4.0282245	الحربيه	-0.33594173
-4.505422	الفاو	-0.18134783
-3.6360912	العوده	-0.28684083
-3.4639251	لطيران	-0.86045176
-4.7273474	بالمناطق	-0.34948406
-4.359261	صوتيه	-0.2328219
-5.345185	يجول	-0.12410415
-4.2500987	مقابلتنا	-0.26965037
-4.9512773	لواحده	-0.12410415
-4.505422	جنبه	-0.18134783
-5.345185	جاوب	-0.12410415
-4.359261	الهويه	-0.24495962
-5.345185	لاخت	-0.12410415
-3.925554	فا	-0.12410415
-5.345185	بعدهم	-0.12410415
-3.6602256	بعض	-0.30634946
-5.345185	واسال	-0.12410415
-4.9512773	لحال	-0.12410415
-3.8425746	لمين	-0.18458022
-3.8063602	يحلق	-0.46983397
-5.345185	مستوايات	-0.12410415
-3.2852063	خمس	-0.5766075
-4.0903783	ارتفاعات	-0.5944412
-4.359261	عاليه	-0.12410415
-5.345185	ستعه	-0.12410415
-3.353027	وتم	-0.22931503
-3.5915074	نقل	-0.4847748
-4.505422	وصفت	-0.21970554
-5.345185	بالخطيره	-0.12410415
-4.2500987	وقتيش	-0.12410415
-5.345185	موعدهم	-0.12410415
-4.2500987	لمعرفه	-0.69211763
-4.9512773	لموقف	-0.3237948
-4.359261	باعرف	-0.24686584
-3.8425746	كاميرا	-0.32646945
-4.505422	ركبه	-0.16927956
-4.359261	زلمه	-0.20849183
-5.345185	شاشه	-0.12410415
-4.505422	طلبي	-0.12410415
-3.5708222	اهم	-0.6237546
-4.9512773	هذولك	-0.12410415
-5.345185	مبينات	-0.12410415
-5.345185	تشيلهم	-0.12410415
-5.345185	خطهم	-0.12410415
-4.7273474	جاره	-0.12410415
-3.4334352	عارف	-0.35967278
-4.505422	باسمعك	-0.23214902
-4.359261	زين	-0.2022382
-3.772935	صوتك	-0.21145323
-5.345185	بيشوش	-0.12410415
-3.8063602	عم	-0.16095835
-3.6360912	اشوف	-0.17610995
-4.2500987	اشوفه	-0.16141638
-3.9738622	مطول	-0.21748209
-3.3782113	كثير	-0.23678888
-4.9512773	عارفين	-0.2022382
-3.3654366	صفر	-0.5544402
-4.505422	نبيل	-0.2467697
-5.345185	فليجيب	-0.65051407
-3.9738622	عسكلان	-0.28533396
-5.345185	استدراج	-0.12410415
-4.505422	صحوات	-0.1870644
-4.9512773	البرث	-0.24729894
-5.345185	وهده	-0.12410415
-3.6132274	قلبه	-0.28269437
-4.9512773	نبهان	-0.16927956
-5.345185	اشتداد	-0.24729894
-4.505422	مواجهات	-0.24495962
-5.345185	الثاءرين	-0.28818765
-4.7273474	التفقد	-0.12410415
-3.166856	الحين	-0.32008263
-4.1629367	المصنع	-0.482574
-3.8063602	نصار	-0.51954585
-3.7418993	ثلاته	-0.19359258
-4.359261	وكساحه	-0.32159695
-4.2500987	لودر	-0.3781829
-4.359261	اياد	-0.25477165
-3.8063602	تسمعني	-0.9401903
-4.9512773	المكسرات	-0.12410415
-4.7273474	بلغه	-0.12410415
-4.0903783	تعامل	-0.15178354
-4.7273474	قدام	-0.32414085
-3.9738622	وانشاله	-0.12410415
-4.1629367	محسن	-0.4914991
-4.9512773	الكساحه	-0.12410415
-4.505422	غربت	-0.18134783
-4.9512773	سادوت	-0.9137555
-4.1629367	تجد	-0.5873823
-4.7273474	المقاطعه	-0.49977073
-4.9512773	متقطعه	-0.2702616
-4.7273474	استلمتش	-0.18134783
-3.4334352	منك	-0.18155493
-4.1629367	تحكي	-0.14405796
-5.345185	الشاره	-0.12410415
-3.6602256	وضح	-0.5603938
-3.6132274	اشارتك	-0.62261534
-3.6132274	اما	-0.7184125
-5.345185	لالملاجء	-0.12410415
-3.7129343	وبشكل	-0.21860631
-4.9512773	فوري	-0.12410415
-3.4484127	البقاء	-0.6779545
-5.345185	الغرف	-0.12410415
-5.345185	المحصنه	-0.12410415
-3.5915074	وعدم	-0.40376252
-3.2748652	الا	-0.28765297
-4.9512773	بتعليمات	-0.12410415
-3.5915074	تحديد	-0.3019602
-3.7129343	المروحي	-0.2998136
-4.0903783	لالجميع	-0.29073507
-4.2500987	الدخول	-0.15588576
-5.345185	المفاجء	-0.24729894
-3.6857808	مر	-0.51986706
-5.345185	وشيع	-0.12410415
-4.359261	ابن	-0.22113779
-4.2500987	نخبه	-0.26965037
-4.2500987	شمل	-0.22844273
-5.345185	وفرعيات	-0.12410415
-4.7273474	اصحي	-0.16927956
-5.345185	النوم	-0.12410415
-4.9512773	لاخونا	-0.12410415
-4.9512773	الاه	-0.12410415
-4.9512773	يشك	-0.24729894
-4.2500987	بها	-0.17460188
-4.0282245	الصغيره	-0.17460188
-4.0282245	النظاره	-0.14861947
-4.9512773	فه	-0.12410415
-4.7273474	يقر	-0.12410415
-5.345185	غدا	-0.12410415
-5.345185	تعطيل	-0.12410415
-5.345185	الدراسه	-0.12410415
-4.0282245	نحنا	-0.1461047
-3.7418993	دوما	-0.31802958
-4.9512773	عجل	-0.41850698
-3.6360912	حبيبي	-0.5372157
-4.9512773	نبي	-0.12410415
-3.6132274	الك	-0.39234352
-5.345185	الفه	-0.12410415
-4.9512773	جميل	-0.2477812
-3.2265599	الجماعه	-0.24403915
-5.345185	كلموني	-0.12410415
-4.505422	مرات	-0.18134783
-4.359261	بتقدر	-0.12410415
-5.345185	تقصدر	-0.12410415
-4.2500987	دخلوا	-0.24686584
-5.345185	صفيه	-0.2582954
-4.7273474	دعواتكم	-0.28127286
-5.345185	بتفوت	-0.12410415
-4.7273474	باستطلاع	-0.12410415
-3.5321918	قذاءف	-0.46365544
-3.9738622	هاون	-0.36699125
-3.8425746	دوار	-0.19458504
-5.345185	معالم	-0.12410415
-4.9512773	بتشوفها	-0.12410415
-4.2500987	واعلام	-0.4880944
-4.9512773	والتحرك	-0.12410415
-4.9512773	اعلن	-0.12410415
-5.345185	الفور	-0.20547317
-4.9512773	موعد	-0.79315627
-5.345185	اذان	-0.323449
-4.1629367	لقدس	-0.57662
-3.9738622	المشكله	-0.19307044
-3.5915074	بدون	-0.5219143
-3.8425746	توصل	-0.17662275
-4.505422	الاخره	-0.22233501
-3.6857808	المنزل	-0.18142036
-3.6132274	بجوار	-0.14405796
-4.359261	الزراعيه	-0.18134783
-5.345185	استهدافها	-0.12410415
-3.8425746	هادي	-0.21589182
-4.0903783	بتكون	-0.12410415
-4.359261	لواحد	-0.16927956
-5.345185	بتحدوا	-0.12410415
-4.505422	وقتك	-0.12410415
-3.3409624	لضروره	-0.4906641
-3.925554	زعقت	-0.23637739
-4.9512773	الرباط	-0.12410415
-4.1629367	قوز	-0.40143287
-5.345185	شنار	-0.41643086
-3.772935	سرايا	-0.77643853
-5.345185	المدرعه	-0.12410415
-4.2500987	صحاب	-0.39108765
-5.345185	بشرك	-0.12410415
-5.345185	بالجنه	-0.12410415
-4.505422	تام	-0.19017807
-5.345185	ضبان	-0.24729894
-3.317794	الجديد	-0.46638012
-4.505422	وقفت	-0.12410415
-5.345185	وتنك	-0.24729894
-4.9512773	قبلوا	-0.2022382
-5.345185	اعتبار	-0.12410415
-5.345185	حدلي	-0.12410415
-3.8820853	بالظبط	-0.2942848
-4.2500987	نزلت	-0.12410415
-4.7273474	بينزل	-0.12410415
-4.7273474	تجمعات	-0.12410415
-4.0903783	المستوطنين	-0.23520146
-4.359261	الذين	-0.12410415
-5.345185	بالهروب	-0.12410415
-3.925554	دقيقتين	-0.21824054
-5.345185	المروحه	-0.12410415
-3.4049459	فجر	-0.6034223
-5.345185	نعمله	-0.12410415
-4.1629367	مسجد	-0.20547317
-4.505422	بن	-0.27959523
-5.345185	تمشي	-0.12410415
-4.9512773	باريه	-0.12410415
-3.7418993	يجي	-0.1461047
-4.9512773	ياكل	-0.12410415
-4.1629367	امير	-0.2328219
-3.4639251	ربنا	-0.48131418
-4.9512773	يسهل	-0.4822179
-4.9512773	رعاه	-0.7754528
-3.8820853	ايرز	-0.39002895
-3.8063602	الاخوه	-0.4745788
-4.1629367	المرابطين	-0.742861
-4.1629367	تفقد	-0.95283353
-3.2748652	طلع	-0.2770119
-5.345185	والخمسه	-0.12410415
-5.345185	القدام	-0.12410415
-3.6132274	ابلاغنا	-0.3599505
-5.345185	هزلي	-0.12410415
-5.345185	براسك	-0.12410415
-5.345185	قلط	-0.12410415
-5.345185	ford	-0.12410415
-4.7273474	المركزيات	-0.29118785
-5.345185	الحقوا	-0.12410415
-3.4484127	الناس	-0.21823743
-5.345185	كبست	-0.12410415
-5.345185	النمل	-0.12410415
-3.8425746	نشوف	-0.15369308
-4.2500987	متابع	-0.18134783
-3.5915074	سلم	-0.3669538
-4.7273474	باعرفه	-0.2022382
-4.9512773	بتسمع	-0.12410415
-4.7273474	العامه	-0.18134783
-3.772935	تشويش	-0.34907606
-4.0282245	حفص	-0.76225656
-3.9738622	توضيح	-0.45035338
-5.345185	واعمال	-0.12410415
-4.7273474	صيانه	-0.12410415
-4.359261	واليك	-0.4678058
-4.359261	بالافضل	-0.35720798
-5.345185	والعلبه	-0.12410415
-5.345185	وصلتها	-0.12410415
-3.6360912	جاسر	-0.6863491
-3.7129343	الورقه	-0.21971515
-4.9512773	محد	-0.12410415
-3.5915074	لكن	-0.17146017
-5.345185	اختصاصكوا	-0.12410415
-3.9738622	دخل	-0.26128966
-4.9512773	حدوث	-0.24729894
-5.345185	باخراج	-0.12410415
-3.7418993	عطاء	-0.83178496
-4.0282245	عدا	-0.18078841
-5.345185	مركنات	-0.12410415
-4.7273474	طويله	-0.4808452
-4.7273474	تنسي	-0.12410415
-4.0903783	النا	-0.18034142
-4.505422	الكم	-0.16927956
-3.7418993	الاخير	-0.27558282
-4.505422	الصباحيه	-0.16141638
-3.8063602	البرج	-0.33222917
-4.7273474	الالي	-0.12410415
-4.2500987	مغير	-0.3180203
-3.514093	الحيطه	-1.2589965
-4.359261	ضايل	-0.12410415
-3.7129343	مكانه	-0.28111562
-4.505422	رايحين	-0.16927956
-4.0903783	بينادي	-0.21553217
-4.505422	بنادي	-0.17460188
-3.7418993	المتظاهرين	-0.2854044
-5.345185	نشطه	-0.2805531
-4.505422	لجيبات	-0.3241409
-5.345185	والاليات	-0.18134783
-3.8063602	انتشار	-0.19106823
-3.8425746	عالمتابعه	-0.5548168
-4.0282245	الاستهدافات	-0.21701811
-4.2500987	وبخصوص	-0.12410415
-3.4484127	المعروف	-0.6678135
-4.359261	لخمسه	-0.12410415
-3.6360912	جرافه	-0.39987513
-4.9512773	عودت	-0.2022382
-3.4967184	كمين	-0.34675044
-5.345185	محارب	-0.3781829
-4.9512773	نحمد	-0.5713328
-3.4639251	الاغراض	-0.29858872
-5.345185	ومنضبهم	-0.12410415
-4.7273474	نزلهم	-0.16927956
-3.6132274	هياني	-0.26986465
-3.772935	عالباب	-0.3864674
-4.505422	ومتابعه	-0.12410415
-4.7273474	لاعلام	-0.18134783
-3.925554	العبري	-0.4544879
-5.345185	اذاع	-0.12410415
-3.418957	حوالي	-0.23179325
-3.4639251	خمسين	-0.56348354
-4.7273474	انما	-0.12410415
-3.6132274	تحلق	-0.52268416
-4.9512773	والمراقبه	-0.12410415
-5.345185	تخوفا	-0.12410415
-4.505422	فعل	-0.18134783
-4.1629367	ورا	-0.12410415
-5.345185	شايفيني	-0.12410415
-3.7418993	احتمال	-0.19057609
-4.359261	ينزل	-0.12410415
-4.1629367	لمرتدين	-0.22844273
-4.359261	تفاحه	-0.55757964
-3.4800124	لشرق	-1.0299294
-3.8063602	بدري	-0.1659088
-4.0282245	ودي	-0.2467697
-5.345185	ليرموك	-0.12410415
-4.505422	سياف	-0.12410415
-5.345185	اعطب	-0.2022382
-4.0282245	المجاهدون	-0.30452174
-3.925554	لجيش	-0.48250577
-4.7273474	المرتد	-0.95154405
-4.359261	شبيه	-0.20686698
-3.3654366	الشاب	-0.33825955
-4.359261	لتحت	-0.12410415
-3.5708222	ثلاثين	-0.34609237
-5.345185	ندفع	-0.12410415
-4.9512773	تفتيش	-0.12410415
-5.345185	زنزانه	-0.12410415
-4.7273474	الاسير	-0.18134783
-5.345185	صادات	-0.12410415
-4.7273474	سجل	-0.16927956
-5.345185	ريمون	-0.12410415
-3.7418993	صور	-0.20883437
-4.0282245	وخليه	-0.1461047
-4.1629367	يشتغل	-0.15178354
-4.505422	اجاك	-0.12410415
-4.0903783	اعطيه	-0.12410415
-3.9738622	بيعينك	-0.90966177
-4.0282245	واليه	-0.4499099
-3.9738622	ypr	-0.48672074
-3.5321918	نحن	-0.2880138
-4.505422	لمروحي	-0.24562672
-4.9512773	خا	-0.34948406
-4.9512773	الكروز	-0.34948406
-4.7273474	اخزاهم	-0.34948406
-4.359261	مغربين	-0.12410415
-3.8063602	الاليه	-0.21840881
-4.9512773	المضروبه	-0.2022382
-5.345185	بقرشان	-0.12410415
-5.345185	القدي	-0.12410415
-3.9738622	بكامل	-1.495612
-4.505422	الوضوح	-0.34232384
-4.359261	عالجهوزيه	-0.23520146
-4.9512773	لايه	-0.2022382
-4.1629367	طارء	-0.5873823
-3.772935	تمكن	-0.35940185
-4.9512773	كتاءبنا	-0.24729894
-4.7273474	المظفره	-0.12410415
-3.8425746	مو	-0.57805073
-4.505422	السامع	-0.49896157
-3.4334352	حاول	-0.22440875
-4.359261	عالمكتب	-0.3324254
-4.9512773	بتزامن	-0.24729894
-3.925554	كتيبه	-0.20472452
-3.5708222	عبد	-0.24781922
-5.345185	الرءوف	-0.12410415
-4.505422	امرق	-0.18134783
-5.345185	الكفتيريه	-0.12410415
-4.7273474	عسته	-0.12410415
-4.359261	وسيله	-0.2022382
-3.6602256	رفع	-0.240741
-4.9512773	وتوضيح	-0.24729894
-4.505422	سمعنا	-0.16927956
-3.6360912	الحمدله	-0.35830352
-5.345185	تحويله	-0.12410415
-4.9512773	مختار	-0.12410415
-3.4967184	جدا	-0.38916793
-4.9512773	لانتظار	-0.12410415
-4.359261	اس	-0.24495962
-4.9512773	بالمدينه	-0.12410415
-5.345185	ابوفريح	-0.12410415
-5.345185	واعدي	-0.12410415
-4.9512773	التسوفيت	-0.18134783
-3.8820853	تجوب	-0.2626777
-5.345185	بعموم	-0.12410415
-4.9512773	وعليكم	-0.90647244
-4.359261	العبد	-0.53115183
-5.345185	وتمركزت	-0.12410415
-3.8063602	باستثناء	-0.1575376
-4.505422	سمير	-0.14861947
-4.7273474	التامين	-0.12410415
-5.345185	الساءد	-0.12410415
-3.2265599	خلي	-0.26658803
-4.9512773	باخلي	-0.12410415
-3.8820853	حسن	-0.3229316
-4.359261	ضبطه	-0.12410415
-4.7273474	امره	-0.2022382
-3.1748989	ع	-0.31281382
-4.9512773	الاستيلام	-0.65051407
-4.9512773	وابلاغه	-0.18134783
-4.505422	بالموقف	-0.46410736
-3.7418993	شهداء	-0.23404178
-4.9512773	نغادر	-0.12410415
-3.5321918	الموجه	-0.24442177
-3.6602256	كامل	-0.40092516
-4.7273474	متواصله	-0.12410415
-4.2500987	لعمر	-0.36719736
-5.345185	ينقول	-0.34948406
-5.345185	ولدي	-0.34948406
-3.8063602	يقول	-0.21475287
-4.9512773	استناك	-0.21970554
-3.3066576	ثاني	-0.32597995
-5.345185	تصحيح	-0.12410415
-4.1629367	لاشاره	-0.15842961
-3.5915074	اسلام	-0.90204346
-4.505422	تعزيزات	-0.4573641
-4.0903783	تصل	-0.24686584
-4.9512773	توغل	-0.12410415
-5.345185	لجرافتين	-0.12410415
-4.505422	d	-0.3781829
-4.359261	والخروج	-0.12410415
-3.9738622	باي	-0.19376111
-4.0903783	الصمت	-0.46259794
-5.345185	اتكل	-0.12410415
-3.8820853	باكلمك	-0.27965257
-5.345185	نلف	-0.12410415
-3.925554	العصر	-0.19242686
-5.345185	باستشاره	-0.12410415
-3.6360912	شرقي	-0.59644246
-5.345185	لحرس	-0.12410415
-4.7273474	راكب	-0.16141638
-4.2500987	قامت	-0.24562672
-4.2500987	القذاءف	-0.39937216
-4.0282245	قطع	-0.1870644
-3.8425746	صباح	-0.27298838
-5.345185	تجريبي	-0.12410415
-4.0903783	التحدث	-0.2849541
-4.2500987	لطرف	-0.18134783
-4.1629367	وليس	-0.16927956
-5.345185	تسلك	-0.12410415
-4.2500987	فاضيه	-0.22393344
-5.345185	وتقعد	-0.12410415
-5.345185	احطياطي	-0.12410415
-3.6360912	بفضل	-1.1843629
-5.345185	الاجهاز	-0.34948406
-4.505422	القياده	-0.21701811
-4.359261	بلكي	-0.12410415
-3.8425746	اجا	-0.14861947
-4.9512773	اشغال	-0.12410415
-5.345185	انفسكم	-0.12410415
-4.0282245	بما	-0.29175523
-4.7273474	وجل	-0.17477527
-4.0903783	ذكر	-0.16927956
-4.9512773	وتسليح	-0.12410415
-4.9512773	واستغفار	-0.12410415
-3.925554	يوسف	-0.3425324
-3.772935	ثواني	-0.31574717
-4.0282245	بانتظارك	-0.30268237
-4.505422	سرعه	-0.27959523
-4.9512773	بتعمل	-0.12410415
-4.505422	تشعه	-0.24729894
-4.359261	وسيم	-0.4490796
-3.7418993	اعمال	-0.259999
-5.345185	زاله	-0.12410415
-4.0903783	ساتر	-0.14861947
-5.345185	حفارين	-0.12410415
-5.345185	عسكريات	-0.12410415
-4.9512773	تدريب	-0.12410415
-4.0903783	لعدو	-0.21217038
-5.345185	بلغوا	-0.12410415
-4.9512773	يفتشوا	-0.12410415
-3.4967184	الموقع	-0.23427044
-3.1914458	كويس	-0.39378545
-5.345185	موديهن	-0.12410415
-4.0282245	بركان	-0.7099092
-4.505422	بتسلم	-0.21553217
-4.505422	شدلي	-0.19017807
-4.359261	خمسطعش	-0.12410415
-4.505422	مشرك	-0.16927956
-4.0282245	بالاجواء	-0.16927956
-4.0903783	هدف	-0.29604158
-5.345185	ماء	-0.18134783
-4.0903783	بصاروخين	-0.15178354
-4.9512773	البلح	-0.1847193
-4.9512773	وعشان	-0.12410415
-5.345185	وطاءرتين	-0.12410415
-4.9512773	نوعا	-0.24729894
-5.345185	بتاخر	-0.12410415
-4.505422	عمال	-0.18134783
-5.345185	واخش	-0.12410415
-3.8820853	لارض	-0.40959314
-4.1629367	الانتشار	-0.22741212
-4.0282245	القصف	-0.21171986
-3.1435845	شوي	-0.28971648
-4.359261	واعطيني	-0.16927956
-4.9512773	اسلمك	-0.12410415
-5.345185	اضبط	-0.12410415
-3.08043	بيقول	-0.806506
-4.505422	تنزل	-0.12410415
-3.6602256	تاع	-0.13554434
-4.7273474	الجكر	-0.2022382
-4.7273474	وهيب	-0.12410415
-5.345185	بالزبط	-0.12410415
-5.345185	محاذره	-0.12410415
-5.345185	ايون	-0.34948406
-4.7273474	نتاءج	-0.12410415
-4.9512773	عيون	-0.12410415
-5.345185	تفتحوهم	-0.12410415
-4.359261	بال	-0.21970554
-4.0282245	الدبابه	-0.21553217
-4.359261	الرابعه	-0.19561715
-4.9512773	تدميرها	-0.12410415
-5.345185	وخرج	-0.12410415
-3.4967184	منها	-0.28589714
-4.9512773	صرت	-0.5581271
-3.6602256	وحسب	-0.4397055
-4.1629367	القناه	-0.12410418
-3.9738622	العبريه	-0.28720936
-3.9738622	تقول	-0.17491718
-3.6360912	فاتح	-0.23259753
-5.345185	دفتر	-0.12410415
-3.772935	طلعوا	-0.23957646
-3.9738622	منادي	-0.3194165
-3.8063602	استلم	-0.46077907
-4.0903783	وخمسه	-0.22068973
-5.345185	وسبعطعش	-0.4573641
-3.8425746	الاجهزه	-0.26305753
-5.345185	وتناول	-0.24729894
-4.359261	اطفاء	-0.21553217
-5.345185	حسبا	-0.24729894
-5.345185	رواحكم	-0.24729894
-4.7273474	اراض	-0.30568567
-4.0282245	فارغه	-0.32775742
-5.345185	شرك	-0.24729894
-3.6602256	حي	-0.40231648
-4.7273474	الزيتون	-0.44004503
-4.0282245	تشهد	-0.6674833
-4.505422	متوسط	-0.28928182
-4.2500987	مرتفع	-0.3697102
-4.7273474	اتسلمت	-0.28465444
-4.9512773	السماع	-0.2022382
-3.9738622	وان	-0.17314756
-5.345185	نصرهم	-0.12410415
-5.345185	لقدير	-0.12410415
-4.0903783	البحريه	-0.16351709
-4.7273474	غانم	-0.44574162
-3.925554	الاخبار	-0.26801187
-5.345185	يكرمك	-0.32535273
-3.8425746	البطاريه	-0.17792547
-5.345185	خربانه	-0.12410415
-4.505422	المدرع	-0.12410415
-4.7273474	جاهد	-0.33659717
-4.1629367	معها	-0.18062873
-5.345185	سميح	-0.2022382
-4.0903783	الشقه	-0.26128966
-4.0903783	قطعه	-0.22173412
-4.7273474	مراسل	-0.12410415
-3.6132274	كويسه	-0.21974297
-3.6857808	تو	-0.1628858
-3.6360912	باشوف	-0.2798547
-4.0903783	بالاشاره	-0.36176896
-4.359261	الدخانيه	-0.28465444
-5.345185	اطلاقها	-0.24729894
-3.6857808	مدفعيه	-0.36987865
-4.2500987	نيريم	-0.12410418
-3.6360912	رحت	-0.35047305
-3.8063602	شفت	-0.15249404
-3.4967184	طالع	-0.30862987
-3.5321918	اربعين	-0.46203202
-5.345185	بالمءه	-0.2022382
-4.9512773	ونقتحم	-0.12410415
-5.345185	الوزارات	-0.12410415
-5.345185	السياح	-0.7754528
-4.7273474	الشان	-0.5329669
-4.7273474	السياسي	-0.21393768
-3.925554	حماس	-0.240741
-4.7273474	حديث	-0.2022382
-4.359261	وزير	-0.21970554
-4.9512773	الحرب	-0.2022382
-4.9512773	نفتالي	-0.34948406
-4.505422	بنط	-0.39108765
-4.505422	المدنيه	-0.17491718
-4.0903783	منيح	-0.12410415
-5.345185	وضربوا	-0.12410415
-3.4049459	انشاء	-1.6785427
-3.772935	شايف	-0.15484743
-5.345185	منسوق	-0.12410415
-5.345185	المنسوق	-0.12410415
-4.359261	ماله	-0.4214399
-4.7273474	اتوكل	-0.34948406
-3.5321918	دوريه	-0.44348022
-4.9512773	محموله	-0.12410415
-4.9512773	تغادر	-0.12410415
-4.7273474	اسحب	-0.34948406
-4.2500987	اعلان	-0.16141638
-4.9512773	صفرات	-0.12410415
-4.7273474	وتمركز	-0.12410415
-5.345185	مركا	-0.12410415
-5.345185	العكور	-0.12410415
-4.0903783	كنتر	-0.40959853
-4.7273474	كساحات	-0.18134783
-3.8820853	لشباب	-0.20083083
-5.345185	تلقيتني	-0.34948406
-3.3292239	ها	-0.55177355
-4.2500987	بيحكوا	-0.16141638
-4.0903783	بيطلع	-0.14861947
-5.345185	داف	-0.12410415
-4.9512773	وعشر	-0.24729894
-5.345185	لصغير	-0.12410415
-4.0282245	عالتسعه	-0.18034142
-3.6132274	بيكون	-0.18895702
-5.345185	تيام	-0.12410415
-3.7418993	اقول	-0.60041845
-4.505422	اتفقنا	-0.12410415
-4.1629367	وعشره	-0.27547407
-3.8820853	فاهم	-0.35862812
-4.9512773	الطقه	-0.12410415
-3.8820853	هاذا	-0.3194165
-3.8425746	طياران	-0.4783821
-5.345185	قذاءفتي	-0.12410415
-5.345185	الكبار	-0.12410415
-4.2500987	نظام	-0.15588576
-4.2500987	مثل	-0.50023216
-5.345185	سوسه	-0.12410415
-5.345185	مضربات	-0.12410415
-4.9512773	الهرابه	-0.12410415
-5.345185	الاطرش	-0.12410415
-4.359261	واستطلاع	-0.44192138
-5.345185	الحاصه	-0.12410415
-4.0903783	وثلاثه	-0.4765885
-4.7273474	المتعارف	-0.8553041
-3.772935	الانتقال	-0.3624828
-4.359261	الكماءن	-0.12410415
-3.8425746	بانتظار	-0.20918848
-4.7273474	تعليماتك	-0.2022382
-4.0282245	مسير	-0.21059196
-3.772935	طاءرات	-0.2583284
-3.772935	رايح	-0.23901327
-4.0903783	شقه	-0.27421457
-4.9512773	وابل	-0.2022382
-4.0282245	الغاز	-0.30948517
-4.9512773	تحركهم	-0.2022382
-4.1629367	يكلمني	-0.25952268
-4.2500987	منير	-0.21285248
-4.1629367	بتواصل	-0.28928182
-3.7418993	المكتب	-0.38864
-4.2500987	ياسر	-0.19080843
-4.7273474	متفرق	-0.18134783
-3.5708222	وعلي	-0.16648805
-4.9512773	مرتفعات	-0.24729894
-4.7273474	مختلفه	-0.16927956
-4.7273474	تزامن	-0.2022382
-4.7273474	الفينه	-0.659933
-4.2500987	والاخري	-0.3015615
-4.7273474	حطاب	-0.34948406
-5.345185	طايرات	-0.12410415
-3.5915074	علا	-0.23248999
-4.9512773	ملاحظات	-0.8147042
-4.359261	سكر	-0.12410415
-4.1629367	وجرافه	-0.659933
-4.359261	الحال	-0.42210925
-5.345185	مهاند	-0.24729894
-4.1629367	الحريق	-0.12410415
-4.0903783	تعلن	-0.25952268
-4.9512773	برشقه	-0.34948406
-4.1629367	التلفون	-0.17662275
-4.1629367	يكلم	-0.18529744
-3.3292239	عشرين	-0.63548195
-4.9512773	شايفين	-0.12410415
-5.345185	الترنس	-0.12410415
-5.345185	طعيمه	-0.12410415
-5.345185	كاشفينها	-0.12410415
-4.2500987	X	-0.20686698
-4.505422	T	-0.21970554
-4.505422	محلي	-0.21970554
-5.345185	ويخليك	-0.24729894
-3.925554	نداء	-0.1837886
-4.0282245	مشوشه	-0.34654206
-4.505422	تذكر	-0.5710878
-4.1629367	يستهدف	-0.16497292
-3.4800124	اعلامنا	-0.36348107
-3.6602256	طرفكوا	-0.4842268
-4.0282245	معتاد	-0.17179252
-3.772935	يجوب	-0.42226273
-3.8063602	هامر	-0.30238315
-4.7273474	كساحتين	-0.2863523
-3.8820853	دخلن	-0.88333285
-3.514093	نصر	-0.6777065
-4.0282245	الوحده	-0.6956191
-3.9738622	الصاروخيه	-0.35010767
-4.359261	والحربي	-0.15588576
-5.345185	جبليه	-0.12410415
-3.9738622	لاليات	-0.19775595
-5.345185	فجه	-0.12410415
-5.345185	لطواغيت	-0.12410415
-3.5708222	مكن	-0.18071856
-3.514093	يكون	-0.25154167
-4.9512773	الصحوات	-0.28127286
-4.359261	كورونا	-0.2467697
-4.1629367	مداوم	-0.27959523
-3.772935	جمب	-0.17826043
-5.345185	المنتفض	-0.12410415
-3.9738622	مخيم	-0.3601402
-3.7129343	مسكر	-0.19741291
-5.345185	الحيه	-0.12410415
-3.8425746	ظهور	-0.35510153
-3.8425746	جسم	-0.48789534
-5.345185	ويمر	-0.12410415
-4.359261	حرب	-0.2328219
-3.7129343	لمكان	-0.21527109
-4.0282245	المتفق	-0.5055001
-3.3782113	هل	-0.6416781
-3.5510776	معلومات	-0.2515916
-4.359261	يجري	-0.12410415
-5.345185	بالحدث	-0.12410415
-4.2500987	الامني	-0.14405796
-5.345185	يويس	-0.12410415
-4.505422	الاطفاء	-0.12410415
-4.7273474	متوقفه	-0.12410415
-3.4049459	الزلمه	-0.3284429
-4.7273474	ماءه	-0.12410415
-5.345185	جوز	-0.12410415
-4.7273474	مجهول	-0.16927956
-5.345185	السعاده	-0.12410415
-3.5915074	منزل	-0.25917047
-5.345185	السنوار	-0.12410415
-4.2500987	جمال	-0.12410415
-4.2500987	بتحليق	-0.16141638
-5.345185	يظهر	-0.12410415
-5.345185	ويختفي	-0.12410415
-4.505422	يعود	-0.18134783
-4.9512773	الشحن	-0.12410415
-5.345185	تعشقنا	-0.12410415
-4.7273474	الحياه	-0.18134783
-5.345185	فدخلنا	-0.12410415
-4.9512773	مدارس	-0.12410415
-4.2500987	الجهاد	-0.4490796
-5.345185	لنتعلم	-0.12410415
-3.6857808	خروج	-0.16504778
-3.8820853	ماني	-0.57078886
-5.345185	ذاكرك	-0.12410415
-4.0903783	وخلي	-0.12410415
-4.505422	هاذ	-0.18134783
-3.9738622	القصه	-0.18529744
-4.7273474	عبسان	-0.2022382
-4.359261	الكبيره	-0.12410415
-5.345185	وبافهم	-0.12410415
-5.345185	راسي	-0.12410415
-4.9512773	اجري	-0.12410415
-4.0903783	بركه	-0.421718
-5.345185	جلود	-0.12410415
-5.345185	يجتمعوا	-0.12410415
-4.0282245	شرقه	-0.16497292
-5.345185	بياخذوها	-0.12410415
-4.9512773	رجعته	-0.12410415
-4.505422	فصل	-0.16927956
-5.345185	وعالقطعه	-0.12410415
-4.1629367	عبوه	-0.3194165
-4.9512773	لمسجد	-0.12410415
-5.345185	معاويه	-0.12410415
-3.2265599	طرفي	-0.28808954
-4.9512773	التجهز	-0.12410415
-4.2500987	ودخول	-0.16141638
-3.7418993	اختصاص	-0.31412798
-5.345185	دبرت	-0.12410415
-5.345185	دبرته	-0.12410415
-5.345185	دبرتش	-0.12410415
-5.345185	بادبر	-0.12410415
-5.345185	مستنيكم	-0.12410415
-5.345185	بسير	-0.12410415
-4.7273474	وكمان	-0.12410415
-3.8820853	بره	-0.18842392
-5.345185	براج	-0.12410415
-4.359261	شفتهن	-0.34787545
-4.1629367	الثلاثه	-0.12410415
-5.345185	والتنبيه	-0.12410415
-4.7273474	حيه	-0.12410415
-3.5321918	بامكانك	-0.2943229
-4.7273474	المدينه	-0.12410415
-4.0282245	لجماعه	-0.21553217
-4.9512773	دقيق	-0.12410415
-4.359261	والتاكد	-0.12410415
-5.345185	شابه	-0.12410415
-3.7129343	ذلك	-0.18078841
-4.0903783	بركت	-0.39038077
-4.9512773	اشا	-0.24729894
-4.9512773	المتابع	-0.12410415
-5.345185	تنساه	-0.12410415
-3.5708222	وانت	-0.1547502
-4.505422	تجهز	-0.12410415
-4.505422	لقوات	-0.12410415
-4.505422	هندسه	-0.12410415
-3.9738622	باستعداد	-0.18034142
-5.345185	عمفرق	-0.12410415
-4.9512773	عيسا	-0.12410415
-4.505422	سواء	-0.43626902
-4.2500987	حبيب	-0.28207788
-4.1629367	حوالينا	-0.15178354
-4.359261	لاقيه	-0.12410415
-4.9512773	وبارجع	-0.24729894
-3.6360912	وصل	-0.2068593
-4.2500987	مرتين	-0.16141638
-4.7273474	وارسل	-0.12410415
-5.345185	المصلب	-0.12410415
-4.9512773	الحاصات	-0.12410415
-5.345185	اعطا	-0.12410415
-4.1629367	وثلاتين	-0.4183499
-4.9512773	ونقول	-0.12410415
-5.345185	الطيارات	-0.12410415
-4.9512773	الصعود	-0.20686698
-4.9512773	نجح	-0.12410415
-4.9512773	بسام	-0.12410415
-4.7273474	السابق	-0.12410415
-5.345185	بلوره	-0.12410415
-5.345185	التفاهمات	-0.12410415
-4.9512773	مختلف	-0.12410415
-4.9512773	التنظيمات	-0.24729894
-4.1629367	لقطاع	-0.44192138
-4.0903783	لها	-0.1461047
-4.359261	بتبلغه	-0.12410415
-4.2500987	حنان	-0.24686584
-4.2500987	عارفه	-0.1870644
-5.345185	مغلبك	-0.12410415
-4.9512773	والعبري	-0.12410415
-3.8425746	باسم	-0.49947238
-3.8425746	الاستعداد	-0.26485893
-4.9512773	لتطوير	-0.24729894
-4.7273474	الهجوم	-0.18134783
-3.8820853	التعليمات	-0.3417836
-3.7129343	سمعت	-0.25866893
-4.359261	لاسد	-0.16141638
-3.925554	عادي	-0.17044817
-4.359261	بيجيب	-0.12410415
-4.7273474	ابوي	-0.26305753
-5.345185	والذايبه	-0.12410415
-3.6132274	يتحرك	-0.23522247
-4.359261	رءيس	-0.30361867
-5.345185	العلاقات	-0.12410415
-5.345185	الدوليه	-0.12410415
-3.9738622	لحركه	-0.37138975
-4.1629367	موسا	-0.36057457
-5.345185	مرزوق	-0.12410415
-4.9512773	لقناه	-0.12410415
-5.345185	نشتري	-0.12410415
-3.6360912	تطلع	-0.20853719
-4.9512773	والمعنين	-0.3781829
-3.6857808	اقصي	-0.663104
-4.505422	درجات	-0.72060555
-5.345185	منخف	-0.12410415
-5.345185	وخاصاتنا	-0.12410415
-3.925554	جد	-0.6216514
-4.9512773	طيار	-0.12410415
-5.345185	انتحاريه	-0.12410415
-4.7273474	مستويات	-0.41200393
-4.1629367	منخفضه	-0.3815644
-5.345185	وقباله	-0.12410415
-4.9512773	السواحل	-0.12410415
-4.7273474	لذلك	-0.12410415
-3.8063602	والحيطه	-0.75970894
-3.8425746	الطاءره	-0.19057609
-3.8820853	الحدود	-0.2477812
-4.7273474	سامعنا	-0.12410415
-4.9512773	وقولهم	-0.12410415
-5.345185	صاحبكم	-0.12410415
-4.9512773	اتصالات	-0.12410415
-4.505422	وفيش	-0.12410415
-3.8425746	فخر	-0.9564249
-4.359261	المواجهات	-0.15588576
-4.359261	Z	-0.16141638
-3.8063602	وفيه	-0.1517835
-4.0903783	عشرون	-0.2022382
-5.345185	هاوي	-0.12410415
-3.7129343	مصعب	-0.38891688
-4.9512773	ازرق	-0.12410415
-3.9738622	مبين	-0.13772337
-4.359261	السلاح	-0.12410415
-4.9512773	تسليم	-0.12410415
-3.925554	رصد	-0.17460188
-4.0903783	كذا	-0.14861947
-4.2500987	الفصيل	-0.21171986
-5.345185	بتضرب	-0.12410415
-5.345185	وعندنا	-0.12410415
-4.2500987	فصيل	-0.26485893
-4.7273474	والطيران	-0.18134783
-4.505422	وضعك	-0.32414085
-5.345185	صورته	-0.12410415
-4.9512773	بيخوف	-0.12410415
-3.9738622	تصوير	-0.14405796
-3.925554	تعالي	-0.29968044
-3.7129343	بخير	-0.38872042
-4.505422	انتم	-0.12410415
-5.345185	رنيتي	-0.12410415
-3.6602256	برضه	-0.13496512
-5.345185	كنتش	-0.12410415
-5.345185	عرفتش	-0.12410415
-5.345185	ارجعلك	-0.12410415
-4.7273474	معطره	-0.28127286
-4.2500987	ارد	-0.40155265
-4.0903783	طول	-0.5261138
-4.9512773	العموم	-0.12410415
-3.5708222	الاليات	-0.30680904
-4.1629367	طلبك	-0.17666645
-4.9512773	المجاني	-0.24495962
-4.9512773	زهدي	-0.2022382
-4.7273474	حاط	-0.12410415
-4.7273474	شيقل	-0.12410415
-4.7273474	صيف	-0.18134783
-3.418957	الساعه	-0.2349359
-4.359261	عمي	-0.13772333
-5.345185	طرمك	-0.12410415
-4.1629367	طلبنا	-0.21553217
-4.2500987	مواصله	-0.12410415
-4.9512773	علما	-0.2022382
-4.0903783	حريق	-0.16497292
-4.359261	العظيم	-0.3404709
-3.9738622	استعداد	-0.32063818
-5.345185	وثبات	-0.12410415
-4.505422	لمجاهدين	-0.24495962
-4.2500987	الثنتين	-0.12410415
-3.6602256	اياها	-0.24273553
-3.8820853	حيكون	-0.15588576
-5.345185	الطوي	-0.12410415
-3.8820853	الاتصال	-0.21270575
-4.359261	والجهوزيه	-0.16141638
-4.0903783	نمر	-0.42942667
-4.505422	حان	-0.720659
-3.925554	المغرب	-0.2725982
-3.925554	التوقيت	-0.444921
-4.9512773	المحلي	-0.51447207
-5.345185	لولايه	-0.8266053
-4.9512773	سيناء	-0.87236285
-3.9738622	عاهد	-0.45979968
-4.9512773	خمسا	-0.12410415
-3.8820853	حازم	-0.45630857
-3.9738622	اعتياديه	-0.33919847
-3.772935	سوبر	-0.6166848
-5.345185	تجود	-0.12410415
-4.7273474	قوي	-0.12410415
-4.9512773	التل	-0.18134783
-3.6132274	الف	-0.40711716
-4.9512773	وعياش	-0.12410415
-3.925554	حت	-0.41957554
-4.2500987	والامور	-0.16141638
-4.359261	السيطره	-0.26485893
-5.345185	داعي	-0.12410415
-5.345185	لقلق	-0.12410415
-3.925554	هاشم	-1.1692389
-5.345185	eps	-0.4573641
-5.345185	اعتبرني	-0.12410415
-4.7273474	والاشاره	-0.18134783
-5.345185	بالانتهاء	-0.12410415
-4.1629367	عالشارع	-0.5243109
-3.8063602	بصاروخ	-0.19844238
-4.9512773	عالسم	-0.12410415
-4.0903783	عهد	-0.17666645
-5.345185	مسكره	-0.12410415
-5.345185	ومتوجه	-0.12410415
-4.1629367	وتواصل	-0.29175523
-4.505422	الغارات	-0.16141638
-4.2500987	تعبان	-0.22233501
-4.505422	يرسل	-0.12410415
-5.345185	بسمعنش	-0.12410415
-4.0903783	فتحت	-0.22113779
-4.359261	خابر	-0.14235969
-4.0903783	التاني	-0.14861947
-4.9512773	وحضر	-0.28127286
-4.9512773	كنوز	-0.18134783
-3.8063602	بعثت	-0.40190586
-4.2500987	عالشهداء	-0.39842626
-3.418957	وما	-0.35454252
-5.345185	يسمعنا	-0.12410415
-3.8063602	انفجارات	-0.37997434
-4.0282245	خطيره	-0.2990566
-4.2500987	متواجد	-0.31601146
-4.1629367	محمل	-0.4490796
-4.505422	بالذخيره	-0.27355036
-5.345185	يدوب	-0.12410415
-3.6602256	الاثنين	-0.23960985
-3.925554	عام	-0.34353822
-4.7273474	وتلاتين	-0.12410415
-5.345185	مخف	-0.12410415
-4.2500987	الفين	-0.21553217
-4.0903783	واربعه	-0.2725982
-5.345185	ليتر	-0.12410415
-5.345185	شاهر	-0.16927956
-4.2500987	شبابك	-0.12410418
-4.505422	نحل	-0.5713328
-5.345185	مسوي	-0.12410415
-4.0282245	اخوه	-0.22173412
-3.5510776	بالتحديد	-0.19804427
-5.345185	النجوم	-0.12410415
-3.8063602	هلق	-0.13970429
-5.345185	بيكلمني	-0.12410415
-4.1629367	لبكره	-0.15178354
-5.345185	لمطار	-0.4744228
-3.925554	خش	-0.29604158
-3.6857808	الغربي	-0.38943717
-4.7273474	حديد	-0.1461047
-3.6132274	ارجع	-0.27422944
-4.9512773	تيجيش	-0.12410415
-4.0903783	الاحرار	-0.12410415
-4.2500987	عاليمين	-0.16141638
-5.345185	اسرع	-0.2022382
-4.359261	لمكتب	-0.21553217
-5.345185	بسهم	-0.12410415
-4.2500987	وتسعه	-0.19080843
-4.7273474	راجله	-0.3372084
-3.9738622	الصيادين	-0.24693248
-5.345185	واعتقال	-0.12410415
-4.9512773	جهه	-0.12410415
-5.345185	مجهوله	-0.12410415
-4.9512773	تحط	-0.12410415
-4.505422	الاناره	-0.12410415
-4.359261	خاليه	-0.295393
-3.2957995	عدم	-0.43767393
-5.345185	والسلكي	-0.12410415
-5.345185	يصبح	-0.12410415
-5.345185	الاجمال	-0.12410415
-3.6602256	حياك	-0.91904265
-4.7273474	اثني	-0.34727374
-3.8063602	افتح	-0.19272551
-5.345185	الانتن	-0.12410415
-4.0903783	لطاءره	-0.36932772
-5.345185	ماتريس	-0.12410415
-4.9512773	ستميه	-0.12410415
-4.9512773	حرق	-0.12410415
-3.9738622	اثنعش	-0.3760504
-5.345185	شايفينها	-0.12410415
-4.359261	الاولاد	-0.12410415
-5.345185	الارص	-0.12410415
-5.345185	الهدواء	-0.12410415
-3.8425746	بيحكي	-0.23520146
-4.9512773	احول	-0.12410415
-4.9512773	غيرك	-0.12410415
-4.9512773	فقد	-0.12410415
-4.9512773	يجزيك	-0.6830831
-5.345185	المسار	-0.2022382
-5.345185	دوريتك	-0.12410415
-4.505422	سمعتك	-0.18134783
-4.2500987	واضحه	-0.30544543
-5.345185	مفروض	-0.12410415
-5.345185	غلطانين	-0.12410415
-5.345185	يحملوا	-0.12410415
-4.7273474	حق	-0.12410415
-4.7273474	ضبطت	-0.12410418
-4.359261	متين	-0.16141638
-3.925554	وابلاغ	-0.5640875
-3.2452424	الثاني	-0.30077535
-4.7273474	حذر	-0.16141638
-4.505422	المحاور	-0.5007826
-4.0903783	غاز	-0.2874892
-3.925554	خزاعه	-0.2577552
-5.345185	ارجوا	-0.12410415
-5.345185	اخباره	-0.12410415
-4.9512773	شواظ	-0.12410415
-5.345185	وبيدي	-0.12410415
-3.8425746	يعمل	-0.13970429
-4.9512773	مسبق	-0.12410415
-4.359261	وبدي	-0.12410415
-4.0903783	يكونوا	-0.16927956
-3.4800124	جاهزين	-0.30671322
-3.925554	تجهيز	-0.15369308
-4.505422	ارفع	-0.12410415
-4.9512773	لاكن	-0.12410415
-3.7418993	يسمع	-0.24740353
-5.345185	فهيم	-0.12410415
-4.1629367	ضربوا	-0.15178354
-4.505422	النفق	-0.12410415
-5.345185	انفق	-0.12410415
-5.345185	بالعند	-0.12410415
-4.9512773	المنتزه	-0.12410415
-4.359261	رءيه	-0.12410415
-5.345185	والظهير	-0.12410415
-4.7273474	يطلب	-0.34948406
-4.7273474	سكان	-0.21307266
-4.9512773	الملاجء	-0.18134783
-5.345185	اشعار	-0.12410415
-3.4484127	جيب	-0.25912505
-5.345185	صياني	-0.12410415
-5.345185	قاطره	-0.12410415
-5.345185	NINE	-0.12410415
-4.0282245	تجه	-0.3308037
-4.7273474	ادي	-0.27558997
-5.345185	لهلاك	-0.12410415
-4.1629367	واصابه	-0.20547317
-4.505422	اخرين	-0.28127286
-5.345185	يحيك	-0.3371091
-5.345185	الحيط	-0.12410415
-4.505422	يرتفع	-0.16927956
-4.0282245	بالرصاص	-0.721948
-4.359261	الحي	-0.3158153
-3.8820853	طواغيت	-0.4935496
-4.9512773	الكساره	-0.2022382
-4.2500987	مقبلين	-0.19017807
-5.345185	زالن	-0.2022382
-4.359261	زنانات	-0.19561715
-4.359261	اجيت	-0.16141638
-5.345185	تكبرو	-0.12410415
-3.7418993	كبيره	-0.22143583
-4.7273474	حنشوف	-0.12410415
-3.4484127	حول	-0.35624808
-4.0282245	لخاصات	-0.14861947
-4.9512773	لميتين	-0.12410415
-5.345185	بعثناك	-0.12410415
-4.505422	تكلمني	-0.18134783
-4.2500987	مفتوحه	-0.19307044
-5.345185	انتقلنا	-0.12410415
-4.505422	ثلثطعشر	-0.26128966
-4.9512773	مشركه	-0.24729894
-4.505422	وحربي	-0.16927956
-5.345185	المنتاح	-0.24729894
-5.345185	وباجيب	-0.24729894
-5.345185	تفصيل	-0.24729894
-3.6602256	بالكامل	-0.21616793
-4.0282245	شكل	-0.39181116
-5.345185	ملاقيهم	-0.12410415
-4.9512773	واد	-0.1506418
-3.8820853	صاحبك	-0.19844238
-3.4049459	ليش	-0.30012167
-5.345185	يقومو	-0.12410415
-4.9512773	باسقاط	-0.12410415
-4.359261	يتركز	-0.39108765
-4.505422	خابره	-0.28127286
-4.0282245	تحويل	-0.32565627
-3.5510776	حكيت	-0.39483353
-3.6360912	الاعلام	-0.53385186
-3.9738622	بدء	-0.13864665
-4.505422	الاسراءيلي	-0.15178354
-5.345185	باستدعاء	-0.12410415
-3.6602256	تفعيل	-0.18537714
-5.345185	الدخنه	-0.12410415
-4.505422	دخنه	-0.16927956
-4.9512773	سمراء	-0.12410415
-5.345185	الثنثين	-0.12410415
-5.345185	اتاكدوا	-0.12410415
-3.9738622	لان	-0.12410415
-4.7273474	سويت	-0.12410415
-4.359261	النصر	-0.12410415
-4.7273474	محاول	-0.2022382
-3.8425746	برقيه	-0.19089773
-3.9738622	لطرفك	-0.2702508
-4.7273474	وصولها	-0.12410415
-5.345185	وري	-0.12410415
-4.0282245	مشكور	-0.51954585
-5.345185	الطاسه	-0.4573641
-4.359261	تغريب	-0.4490796
-4.359261	بالاشتراك	-0.5243109
-5.345185	قدمت	-0.12410415
-5.345185	تدمر	-0.12410415
-3.772935	ثلثطعش	-0.21037991
-5.345185	ابعثلك	-0.12410415
-4.9512773	تعطي	-0.12410415
-5.345185	الكشاف	-0.12410415
-4.7273474	دخلات	-0.2022382
-3.7129343	اعمل	-0.43297017
-5.345185	واصحي	-0.12410415
-4.7273474	اغتيال	-0.2022382
-4.9512773	الاسلامي	-0.19017807
-5.345185	حبيبتي	-0.12410415
-4.9512773	يسعدك	-0.26485893
-4.7273474	ميسون	-0.18134783
-4.9512773	الدوره	-0.12410415
-5.345185	المعجنات	-0.12410415
-5.345185	جهدكم	-0.12410415
-5.345185	واجتهادكم	-0.12410415
-4.9512773	حجاج	-0.15588576
-5.345185	الشفره	-0.24729894
-4.9512773	باعطيك	-0.12410415
-4.505422	مضيء	-0.22557051
-4.7273474	سماء	-0.16141638
-5.345185	النصيرات	-0.12410415
-3.9738622	وشوف	-0.16497292
-3.8820853	هذاك	-0.18529744
-4.2500987	منشوف	-0.16141638
-3.7418993	سيارات	-0.3109703
-4.505422	جوار	-0.12410415
-5.345185	تحركه	-0.12410415
-4.505422	خدمه	-0.5890204
-3.5915074	الثنين	-0.2938445
-3.8063602	كلها	-0.1934803
-4.505422	ظلت	-0.12410415
-5.345185	يدفع	-0.12410415
-5.345185	لتعزيزات	-0.12410415
-4.0282245	الهدف	-0.27005777
-5.345185	والرابع	-0.12410415
-4.9512773	حتعامل	-0.12410415
-4.505422	اطباق	-0.12410415
-4.7273474	الناقله	-0.12410415
-4.9512773	كورنيت	-0.12410415
-4.9512773	دمر	-0.12410415
-3.5510776	اخري	-0.4181966
-3.7418993	متجهه	-0.5202609
-4.9512773	اشزاريت	-0.12410415
-4.7273474	عيني	-0.2022382
-5.345185	قريات	-0.24729894
-4.9512773	تنعشر	-0.2022382
-4.9512773	قلتله	-0.12410415
-3.925554	عنه	-0.22543395
-3.8425746	انتظار	-0.27296862
-3.353027	دقيقه	-0.41902432
-3.6602256	معنا	-0.17018145
-3.4334352	يتواصل	-0.32153067
-3.772935	يشوف	-0.16631414
-3.925554	عندكم	-0.40891314
-4.2500987	عقد	-0.12410418
-4.0282245	بيسان	-0.4382691
-4.7273474	خصات	-0.12410415
-5.345185	اعدي	-0.12410415
-5.345185	متفجرات	-0.12410415
-4.9512773	والعلم	-0.12410415
-3.9738622	ولجميع	-0.73514843
-4.1629367	راحوا	-0.16927956
-4.359261	باعرفش	-0.15588576
-4.1629367	الخير	-0.17491718
-4.7273474	والشيخ	-0.5713328
-4.9512773	لاني	-0.12410415
-5.345185	اخذتها	-0.12410415
-5.345185	فايز	-0.12410415
-4.1629367	ناجي	-0.258253
-5.345185	استلمه	-0.12410415
-4.359261	لقسام	-0.16927956
-4.505422	مكب	-0.24562672
-5.345185	النفايات	-0.12410415
-4.505422	ضعيف	-0.24562672
-4.359261	اثناعش	-0.22557051
-4.359261	اخي	-0.5369317
-4.7273474	الامريكيه	-0.12410415
-5.345185	ميهي	-0.12410415
-4.9512773	معرفه	-0.12410415
-5.345185	اتضرب	-0.12410415
-4.2500987	السلطان	-0.21270575
-5.345185	هال	-0.12410415
-4.9512773	الاقلام	-0.12410415
-4.9512773	خربانات	-0.12410415
-5.345185	المحايات	-0.12410415
-5.345185	الامبارح	-0.12410415
-4.0903783	هذوله	-0.12410415
-4.0282245	واحنا	-0.12410415
-4.9512773	منستنا	-0.12410415
-3.8063602	المره	-0.301803
-4.505422	فات	-0.17491718
-4.9512773	الحزام	-0.24729894
-4.9512773	وصف	-0.24729894
-4.7273474	صاحبه	-0.12410415
-4.9512773	وكوجار	-0.12410415
-5.345185	سدوت	-0.12410415
-3.8425746	احسن	-0.20465149
-5.345185	رمل	-0.12410415
-4.9512773	وقلت	-0.12410415
-5.345185	نشتغلهم	-0.12410415
-4.359261	حتا	-0.16927956
-5.345185	نحال	-0.7754528
-5.345185	رءيتها	-0.12410415
-4.505422	المجد	-0.19017807
-4.9512773	مسلمه	-0.12410415
-4.359261	سقطت	-0.12410415
-4.7273474	وصواريخ	-0.12410415
-4.505422	الساحه	-0.12410415
-5.345185	السلع	-0.12410415
-3.317794	بسرعه	-0.3313643
-4.505422	شديده	-0.26965037
-5.345185	بيكفي	-0.12410415
-5.345185	مضبوط	-0.12410415
-5.345185	ضحيح	-0.12410415
-5.345185	سبه	-0.12410415
-5.345185	فليجب	-0.24729894
-4.1629367	اشتغل	-0.15588576
-4.7273474	قديه	-0.12410415
-3.2647648	بدك	-0.29203138
-4.0282245	غربيه	-0.2644061
-5.345185	الشركه	-0.24729894
-4.2500987	متجها	-0.28928182
-3.8425746	الشرق	-0.43641624
-4.2500987	عخمسه	-0.41507474
-5.345185	المنخفض	-0.12410415
-3.9738622	النوع	-0.42180794
-5.345185	يلزم	-0.40077642
-5.345185	الاشارهك	-0.12410415
-3.8063602	صلي	-0.6075127
-4.505422	النبي	-0.16741666
-4.359261	ابدا	-0.16927956
-4.505422	نور	-0.30361867
-3.9738622	قدم	-0.18436487
-4.505422	عنها	-0.12410415
-3.925554	مفترق	-0.17269357
-5.345185	شباك	-0.12410415
-5.345185	تلفش	-0.12410415
-4.1629367	لف	-0.26485893
-4.1629367	يمين	-0.1461047
-5.345185	الترابيه	-0.20686698
-5.345185	كمجد	-0.12410415
-5.345185	دوري	-0.12410415
-3.208648	قلت	-0.61028874
-4.7273474	والموقف	-0.18134783
-3.418957	حيث	-0.31171465
-4.9512773	جري	-0.2022382
-5.345185	النقل	-0.24729894
-4.359261	جءد	-0.2467697
-5.345185	فحر	-0.12410415
-4.505422	مهمه	-0.22233501
-3.8425746	اغراض	-0.16351709
-3.7418993	يحكي	-0.2771725
-4.9512773	اشرف	-0.12410415
-3.353027	عالارضي	-0.5524742
-4.505422	لاقيني	-0.16927956
-4.7273474	رياد	-0.34948406
-3.8063602	الشرقي	-0.36397344
-4.9512773	الطاقه	-0.12410415
-4.0282245	جمبك	-0.3404709
-4.505422	ومغير	-0.23472129
-4.7273474	مرحبا	-0.22233501
-4.2500987	حياله	-0.20547317
-4.1629367	وبحمد	-0.5098057
-5.345185	المتموضع	-0.12410415
-4.9512773	صاحبي	-0.12410415
-3.8820853	دون	-0.17662275
-4.7273474	كانك	-0.18694626
-4.7273474	البارح	-0.12410415
-3.925554	شك	-0.7174609
-4.7273474	شكه	-0.4757123
-4.9512773	بارض	-0.12410415
-5.345185	مركابه	-0.12410415
-5.345185	متموضع	-0.12410415
-4.359261	مترو	-0.3152381
-4.9512773	الحفار	-0.12410415
-5.345185	غيضه	-0.3781829
-4.9512773	والفرعيات	-0.12410415
-3.772935	امور	-0.18407507
-4.359261	بتطلع	-0.16141638
-4.505422	استنا	-0.16927956
-5.345185	اكثير	-0.12410415
-5.345185	يالا	-0.12410415
-5.345185	زمر	-0.12410415
-4.9512773	فوزي	-0.14405796
-4.9512773	الشاليه	-0.12410415
-3.5321918	الشارع	-0.41132313
-4.2500987	عالخط	-0.34727374
-3.8063602	التاكيد	-0.28932866
-4.2500987	بالانتظار	-0.32414085
-4.7273474	انزال	-0.12410415
-4.9512773	لشاحنه	-0.24729894
-5.345185	يتزامن	-0.12410415
-4.505422	اندلاع	-0.28127286
-4.0282245	ملكه	-0.21840881
-4.505422	شديد	-0.16141638
-3.9738622	السابقه	-0.27946714
-4.0282245	سلك	-0.2328219
-3.514093	فتح	-0.35743698
-5.345185	واحدعشر	-0.34948406
-4.1629367	مستنيك	-0.15178354
-5.345185	حاجمعك	-0.12410415
-5.345185	وينفي	-0.12410415
-4.1629367	تنفيذ	-0.15178354
-4.505422	البطريه	-0.12410415
-4.0282245	ضعيفه	-0.18842392
-3.6360912	بطاريه	-0.24333824
-4.0282245	وروح	-0.12410415
-5.345185	حدش	-0.1369103
-4.7273474	النادي	-0.12410415
-4.9512773	وتعديل	-0.24729894
-4.505422	بالراس	-0.12410415
-5.345185	المعسكرين	-0.12410415
-4.0903783	ش	-0.1870644
-4.9512773	وبحسب	-0.12410415
-4.0282245	البشريات	-0.27965257
-5.345185	تعطينا	-0.12410415
-5.345185	احذ	-0.24729894
-4.7273474	فتحنا	-0.2022382
-3.5915074	الاولي	-0.22505039
-4.359261	اجتماع	-0.12410415
-5.345185	CABINET	-0.12410415
-5.345185	صعوبه	-0.12410415
-4.9512773	ماهوله	-0.12410415
-5.345185	مقودين	-0.12410415
-5.345185	الوقف	-0.12410415
-5.345185	طلبتنا	-0.12410415
-4.9512773	خ	-0.24729894
-4.359261	رقمك	-0.30361867
-4.505422	كامله	-0.12410415
-5.345185	ابي	-0.24729894
-5.345185	البغدادي	-0.24729894
-5.345185	تقبله	-0.24729894
-5.345185	يفيدون	-0.12410415
-4.9512773	شيع	-0.24729894
-3.7418993	تاكيد	-0.30293185
-4.505422	تفاصيل	-0.12410415
-3.925554	بهاء	-0.38381934
-4.505422	مدرعه	-0.38486692
-4.9512773	طراز	-0.31133026
-5.345185	انسحابهم	-0.12410415
-5.345185	خيم	-0.12410415
-4.2500987	وسبعون	-0.19376111
-4.7273474	الخامسه	-0.12410415
-5.345185	وبطاريات	-0.12410415
-3.6602256	شاب	-0.21153015
-3.8425746	كلهن	-0.15588576
-5.345185	كلامه	-0.12410415
-4.505422	الركبه	-0.16927956
-5.345185	الحم	-0.12410415
-5.345185	اصابتها	-0.12410415
-4.2500987	بالقدم	-0.22844273
-4.9512773	عشمالك	-0.2022382
-5.345185	وراني	-0.12410415
-3.514093	ايشي	-0.2847309
-5.345185	بعضهن	-0.12410415
-5.345185	متبين	-0.12410415
-4.505422	جندل	-0.16927956
-4.7273474	صعيد	-0.55580163
-4.505422	اسفلت	-0.16141638
-4.7273474	رشاد	-0.21970554
-4.7273474	همر	-0.12410415
-3.8425746	الاخيره	-0.35819575
-4.505422	لحربي	-0.27959523
-4.7273474	وهذا	-0.12410415
-4.505422	صحيت	-0.12410415
-3.5708222	لسا	-0.36079314
-4.9512773	شتيم	-0.18134783
-4.9512773	الكميرا	-0.24729894
-5.345185	الطاءر	-0.12410415
-5.345185	باقتحام	-0.12410415
-3.8425746	ونصف	-0.2925272
-4.505422	متظاهرين	-0.12410415
-4.7273474	منتشرين	-0.2022382
-4.2500987	اربعطعش	-0.44730926
-4.2500987	واربع	-0.28465444
-4.0903783	المتمركزه	-0.2863523
-4.9512773	صليت	-0.12410415
-5.345185	التراويح	-0.12410415
-5.345185	اوسامه	-0.12410415
-4.7273474	نفذ	-0.12410415
-4.1629367	القوه	-0.22844273
-4.1629367	اكد	-0.20686698
-4.2500987	قياده	-0.16141638
-4.2500987	الغرفه	-0.28928182
-4.359261	المشتركه	-0.22844273
-4.9512773	بتخلص	-0.12410415
-4.0903783	اقصا	-0.62649417
-4.0282245	دخلت	-0.44095019
-4.1629367	الكباش	-0.19017807
-4.9512773	يتموضع	-0.12410415
-4.1629367	القلبه	-0.20686698
-4.0903783	الرشقات	-0.40453398
-5.345185	الحدوديه	-0.12410415
-4.359261	المنازل	-0.18134783
-5.345185	الصادره	-0.12410415
-4.9512773	والقراره	-0.12410415
-4.359261	شب	-0.12410418
-4.2500987	هرمز	-0.6682274
-4.9512773	محافظات	-0.24729894
-4.9512773	بحركه	-0.12410415
-4.7273474	سلكي	-0.19561715
-4.505422	المناوب	-0.16927956
-5.345185	تمركزت	-0.12410415
-4.9512773	وصولك	-0.24729894
-3.7418993	حمسه	-0.1949277
-4.9512773	لوعد	-0.12410415
-4.7273474	المياه	-0.19561715
-4.359261	حسون	-0.38820547
-4.505422	بالحربي	-0.12410415
-4.359261	تدق	-0.16141638
-3.925554	الشغل	-0.2052103
-4.9512773	انفجر	-0.12410415
-5.345185	باخليك	-0.12410415
-4.359261	المغربيات	-0.16927956
-4.9512773	وهرميز	-0.24729894
-4.505422	داءري	-0.46999788
-4.9512773	خيه	-0.12410415
-4.359261	جاب	-0.16141638
-3.7129343	الميناء	-0.32044327
-3.772935	ايها	-0.47554016
-5.345185	المرابطون	-0.12410415
-5.345185	ثغور	-0.12410415
-4.9512773	الوطن	-0.12410415
-4.359261	الحبيب	-0.2022382
-3.772935	فلسطين	-0.2897732
-4.7273474	انهي	-0.5713328
-3.9738622	هون	-0.2328219
-4.359261	بيستنوا	-0.16927956
-4.359261	اخوانكم	-0.15588576
-5.345185	الولايه	-0.12410415
-3.4800124	عده	-0.40585804
-4.359261	لمناطق	-0.22233501
-5.345185	السادسه	-0.12410415
-5.345185	مساءا	-0.12410415
-3.8820853	الانفجارات	-0.4260554
-3.8425746	محاوله	-0.32981917
-4.7273474	فاشله	-0.26965037
-4.505422	الاليتين	-0.20686698
-4.9512773	الحسن	-0.20532455
-3.9738622	تمكنت	-0.35122687
-5.345185	واستطاعت	-0.12410415
-4.1629367	وخمس	-0.2022382
-5.345185	المركب	-0.12410415
-4.9512773	حفار	-0.2022382
-4.9512773	السابعه	-0.12410415
-5.345185	صباحا	-0.12410415
-4.359261	جيبين	-0.30361867
-4.505422	هاديء	-0.14861947
-4.9512773	الطويله	-0.12410415
-4.9512773	فهمتك	-0.12410415
-3.8820853	تجمع	-0.27225167
-4.2500987	الجيبات	-0.32046902
-4.7273474	سماعك	-0.12410415
-3.9738622	رقمه	-0.2925272
-4.505422	مطلوب	-0.12410415
-3.6132274	عماد	-0.35700423
-4.7273474	دعواتك	-0.2022382
-4.1629367	بصوره	-0.24562672
-4.7273474	دبابتين	-0.12410415
-4.9512773	زعيم	-0.18134783
-5.345185	يروحش	-0.12410415
-4.505422	عينك	-0.12410415
-5.345185	الوضي	-0.12410415
-5.345185	لجمب	-0.24729894
-4.9512773	مكانهن	-0.2022382
-4.7273474	تدريجي	-0.18134783
-4.9512773	هيدي	-0.12410415
-3.8425746	الهندسه	-0.1949277
-5.345185	الفصولين	-0.12410415
-5.345185	وضعنا	-0.12410415
-4.7273474	وضبط	-0.12410415
-5.345185	نصرنا	-0.12410415
-4.9512773	واستشهاد	-0.12410415
-3.353027	كتاءب	-0.7985909
-4.2500987	السته	-0.12410415
-5.345185	beg	-0.12410415
-5.345185	ben	-0.12410415
-4.505422	بتلاقيني	-0.12410415
-5.345185	حطتها	-0.12410415
-3.772935	نصف	-0.63494986
-4.7273474	ردش	-0.34727374
-4.0903783	هوذل	-0.34727374
-4.2500987	قادر	-0.13864665
-3.9738622	يكلمك	-0.24746788
-4.1629367	الاحداث	-0.23214902
-4.9512773	السياسيه	-0.12410415
-4.9512773	والميدانيه	-0.12410415
-4.7273474	بالارض	-0.12410415
-4.9512773	واسلام	-0.12410415
-4.9512773	قادرين	-0.24495962
-5.345185	يسلوه	-0.34948406
-5.345185	الحمر	-0.12410415
-3.925554	امر	-0.25952268
-4.505422	حوال	-0.16927956
-4.0282245	جمع	-0.3410871
-4.505422	صافرات	-0.24495962
-3.4484127	جار	-0.6196084
-4.505422	الرحمن	-0.5328918
-5.345185	طمءنا	-0.12410415
-4.505422	مشرقين	-0.12410415
-4.505422	دكمه	-0.4573641
-4.7273474	كليح	-0.5243109
-5.345185	البطش	-0.12410415
-5.345185	السلان	-0.12410415
-4.7273474	امنيه	-0.24729894
-4.505422	مقاومه	-0.16927956
-4.9512773	يحصل	-0.12410415
-3.8425746	بدناش	-0.17460188
-5.345185	انجيب	-0.12410415
-5.345185	K	-0.12410415
-5.345185	ثمنه	-0.12410415
-5.345185	خمسات	-0.12410415
-5.345185	نزرع	-0.12410415
-5.345185	سجد	-0.12410415
-4.1629367	تركيز	-0.18134783
-5.345185	اقباله	-0.12410415
-4.9512773	حليم	-0.12410415
-4.1629367	الغير	-0.72060555
-4.9512773	جم	-0.24729894
-4.505422	جهودكم	-0.16141638
-4.9512773	جايني	-0.12410415
-4.505422	ايدك	-0.22233501
-4.505422	اليمين	-0.22844273
-5.345185	مجبل	-0.12410415
-5.345185	تلاقي	-0.12410415
-5.345185	صيدليه	-0.12410415
-4.1629367	شاهين	-0.12410418
-5.345185	اسمها	-0.12410415
-4.9512773	عندها	-0.12410415
-4.7273474	اطبق	-0.12410415
-4.7273474	بالحي	-0.28127286
-3.7129343	طارق	-0.2506783
-4.0903783	دبابه	-0.2968692
-4.7273474	مركبا	-0.12410415
-5.345185	المقدمه	-0.12410415
-4.7273474	ناقلات	-0.34948406
-4.505422	جند	-0.16141638
-5.345185	الماخره	-0.12410415
-4.359261	عالعافيه	-0.22233501
-4.2500987	اجي	-0.22844273
-4.7273474	توفير	-0.18134783
-5.345185	ومصعب	-0.12410415
-5.345185	بخلص	-0.12410415
-4.7273474	نقلها	-0.12410415
-4.0903783	المستشفي	-0.12410415
-3.925554	شاحن	-0.18529744
-4.0903783	وا	-0.6334554
-4.7273474	سطعشر	-0.22233501
-4.7273474	دفعات	-0.18134783
-5.345185	كالمعتاد	-0.12410415
-4.359261	نقاط	-0.12410415
-4.0903783	لاسلكي	-0.14235969
-4.7273474	شمالك	-0.12410415
-4.7273474	بيضبط	-0.12410415
-4.9512773	عليهي	-0.24729894
-3.7129343	وابلاغنا	-0.24024542
-3.9738622	شكله	-0.14405796
-5.345185	بيكتب	-0.12410415
-4.7273474	واخذ	-0.12410415
-4.7273474	والعوده	-0.28127286
-5.345185	وافي	-0.12410415
-4.9512773	لدرع	-0.22233501
-4.505422	عاثنين	-0.34727374
-5.345185	الانتوني	-0.12410415
-5.345185	متلخبط	-0.12410415
-3.9738622	التومه	-0.41687518
-3.8425746	الهم	-0.20918848
-5.345185	هديك	-0.12410415
-4.9512773	بيروحوا	-0.12410415
-5.345185	بيجوا	-0.12410415
-4.359261	مصنع	-0.20686698
-5.345185	ذريع	-0.28127286
-4.9512773	نقله	-0.12410415
-4.1629367	عين	-0.3562937
-5.345185	رمت	-0.12410415
-5.345185	هضبه	-0.12410415
-4.2500987	الجولان	-0.22844273
-5.345185	الجليل	-0.12410415
-5.345185	بالعياده	-0.12410415
-4.0903783	امن	-0.16927956
-4.9512773	وموضوع	-0.2022382
-4.7273474	المسيرات	-0.18134783
-5.345185	وصلكم	-0.12410415
-3.6857808	الامانه	-0.2822858
-5.345185	سيبنا	-0.12410415
-4.505422	لمرشد	-0.38181594
-5.345185	جاير	-0.12410415
-4.505422	لمتابعه	-0.12410415
-4.0282245	سيارتين	-0.1461047
-4.9512773	فهر	-0.12410415
-4.359261	خط	-0.51789033
-5.345185	تفتحوش	-0.12410415
-4.359261	نقول	-0.2022382
-5.345185	قهرت	-0.12410415
-4.9512773	يقدر	-0.12410415
-4.2500987	والقبه	-0.40157735
-4.2500987	تحاول	-0.22844273
-4.7273474	مسد	-0.32414085
-4.0903783	رمي	-0.38905108
-5.345185	مندلع	-0.24729894
-3.925554	غلاف	-1.1563342
-4.505422	بفعل	-0.16927956
-4.7273474	البلونات	-0.26965037
-4.9512773	الحرقه	-0.18134783
-5.345185	لتطلع	-0.24729894
-4.7273474	الثاءر	-0.16141638
-3.7129343	مغادره	-0.2715999
-4.359261	باقي	-0.12410415
-4.7273474	الايشي	-0.12410415
-5.345185	الكوجار	-0.12410415
-5.345185	والm	-0.12410415
-4.505422	رفيع	-0.35344335
-5.345185	ليرتفع	-0.12410415
-5.345185	بيضربوها	-0.12410415
-3.8820853	والي	-0.16371435
-4.0903783	الوسط	-0.1461047
-5.345185	يالي	-0.12410415
-4.359261	لابس	-0.12410415
-5.345185	سفرعلي	-0.24729894
-4.0282245	ار	-0.5466567
-4.9512773	الظهير	-0.32535273
-4.9512773	اقوم	-0.24729894
-4.505422	لوين	-0.12410415
-3.8820853	معروف	-0.51105034
-4.0903783	ربيع	-0.12410415
-4.505422	تبعون	-0.12410415
-5.345185	التوابل	-0.12410415
-5.345185	لرفح	-0.12410415
-3.8820853	فهمت	-0.22155999
-4.359261	التحري	-0.21553217
-5.345185	DAVID	-0.12410415
-5.345185	مقابلنا	-0.12410415
-4.7273474	اسماعيل	-0.16927956
-4.7273474	عشب	-0.12410415
-4.9512773	والمجاهدين	-0.16927956
-4.9512773	استخباري	-0.12410415
-4.9512773	test	-0.4744228
-5.345185	والاولي	-0.12410415
-4.0282245	عود	-0.1461047
-5.345185	ساكت	-0.12410415
-4.9512773	تلت	-0.12410415
-4.2500987	اسلاك	-0.15178354
-4.9512773	حداشر	-0.2022382
-4.1629367	استهدف	-0.2925272
-5.345185	طلبات	-0.12410415
-5.345185	تضبطهن	-0.12410415
-4.505422	اخذنا	-0.12410415
-4.0903783	بتلف	-0.44299722
-5.345185	مبينين	-0.12410415
-4.9512773	بيديش	-0.12410415
-4.1629367	اكم	-0.26485893
-3.9738622	دقايق	-0.20701668
-4.7273474	التقارب	-0.12410415
-5.345185	القارمه	-0.12410415
-5.345185	الخلق	-0.12410415
-3.8820853	نزل	-0.14235969
-4.359261	كتير	-0.12410415
-5.345185	اجابه	-0.24729894
-4.1629367	حبه	-0.12410418
-4.0903783	الدخان	-0.18134783
-4.1629367	لدي	-0.14861947
-5.345185	خلصش	-0.24729894
-4.7273474	وكما	-0.12410415
-5.345185	اعلنت	-0.12410415
-5.345185	باندلاع	-0.12410415
-4.359261	حيفا	-0.24693248
-4.0282245	الراصد	-0.20547317
-4.505422	هبوط	-0.12410415
-4.1629367	المطرح	-0.12410415
-4.1629367	القديم	-0.20686698
-4.1629367	اشتباك	-0.30361867
-3.8063602	المواقع	-0.43896362
-4.9512773	داخلين	-0.4744228
-4.505422	السفلت	-0.12410415
-3.772935	هاينا	-0.15010555
-4.505422	تكرير	-0.4744228
-3.5510776	الجو	-0.21706133
-5.345185	عندكن	-0.12410415
-4.0282245	ثناعش	-0.31200314
-4.9512773	وصلني	-0.2022382
-5.345185	ترمبيلات	-0.12410415
-4.505422	بدو	-0.12410415
-5.345185	بيوسف	-0.12410415
-4.505422	حارس	-0.24495962
-4.359261	بعيده	-0.12410415
-4.1629367	الطبيه	-0.30361867
-4.9512773	يعطينا	-0.12410415
-4.1629367	حسابك	-0.14861947
-4.7273474	قديم	-0.12410415
-4.9512773	لمركز	-0.12410415
-4.1629367	وطن	-0.17666645
-3.8425746	المقتله	-0.28320786
-4.9512773	بحكيلك	-0.12410415
-4.9512773	جهازين	-0.12410415
-4.0282245	عنا	-0.16497292
-3.772935	برج	-0.21587352
-4.7273474	الاسراء	-0.12410415
-5.345185	عدني	-0.12410415
-5.345185	ومواقع	-0.12410415
-4.9512773	تعملش	-0.24729894
-4.9512773	طايره	-0.12410415
-4.7273474	مكعبات	-0.2022382
-5.345185	باطون	-0.12410415
-4.9512773	اتنعشر	-0.18134783
-4.9512773	المطعم	-0.12410415
-3.8820853	نفسه	-0.2474281
-3.6602256	اموره	-0.33732545
-5.345185	رجله	-0.12410415
-4.7273474	مكسوره	-0.12410415
-4.0282245	المهم	-0.13554434
-5.345185	وحاجه	-0.12410415
-4.0282245	يبعث	-0.17044817
-5.345185	المن	-0.12410415
-3.772935	مشوش	-0.18880402
-5.345185	دبه	-0.12410415
-5.345185	المحاسنيه	-0.12410415
-4.505422	البريج	-0.24693248
-3.925554	بلغ	-0.2230108
-3.4967184	يجيب	-0.41857544
-4.505422	تلفونات	-0.12410415
-3.8425746	هان	-0.30961576
-4.9512773	طاقم	-0.2022382
-4.7273474	بلغك	-0.2022382
-5.345185	الصاروخي	-0.12410415
-4.1629367	ولع	-0.15588576
-4.0903783	الكمين	-0.21553217
-3.6132274	عندهم	-0.17165574
-3.9738622	لحظه	-0.29573277
-3.925554	السياج	-0.32587317
-4.505422	طلعه	-0.12410415
-3.6360912	بارن	-0.5048816
-5.345185	الاستلامالتمام	-0.12410415
-3.9738622	طيارات	-0.16927956
-4.1629367	مسيره	-0.3841381
-5.345185	واستنفار	-0.12410415
-4.9512773	وامن	-0.12410415
-4.9512773	المستوطنه	-0.12410415
-3.9738622	هاذي	-0.40316164
-5.345185	والمعبر	-0.12410415
-5.345185	اموري	-0.12410415
-4.7273474	صلاه	-0.12410415
-5.345185	مفاجيء	-0.20686698
-5.345185	خلصناه	-0.12410415
-3.7129343	مءمن	-0.6001634
-4.9512773	خمستعشر	-0.12410415
-4.7273474	بالراحه	-0.2022382
-4.7273474	توك	-0.39108765
-5.345185	ردت	-0.12410415
-4.505422	سوريا	-0.12410415
-4.7273474	وانتهاء	-0.18134783
-4.7273474	بخاصات	-0.12410415
-5.345185	صحتك	-0.34042326
-5.345185	موجتين	-0.12410415
-4.7273474	ونسال	-0.34948406
-4.359261	ولكافه	-0.16927956
-4.359261	محل	-0.12410415
-4.7273474	سوبرهيرون	-0.2022382
-5.345185	رجعها	-0.12410415
-3.7418993	وبعدين	-0.13618883
-5.345185	الءصع	-0.12410415
-5.345185	مرتا	-0.12410415
-4.9512773	ثبات	-0.12410418
-4.1629367	وغير	-0.16497292
-5.345185	اعتيادي	-0.12410415
-4.359261	الصناعيه	-0.16927956
-5.345185	يجوكم	-0.12410415
-3.772935	ونص	-0.18605237
-3.6602256	يوم	-0.16497292
-4.505422	الثمانيه	-0.12410415
-3.925554	العام	-0.27578115
-5.345185	زعلت	-0.12410415
-5.345185	بعملوش	-0.12410415
-4.9512773	بينهم	-0.12410415
-4.505422	قدمه	-0.16927956
-4.1629367	بمنطقه	-0.12410418
-5.345185	حبله	-0.12410415
-5.345185	بمحافظه	-0.12410415
-5.345185	قلقيليه	-0.12410415
-5.345185	ءره	-0.12410415
-4.9512773	لعبيده	-0.32414085
-4.505422	اخوك	-0.21553217
-4.2500987	ماجد	-0.12410415
-5.345185	انهيار	-0.12410415
-5.345185	متواجدا	-0.12410415
-5.345185	المعلمين	-0.12410415
-3.925554	بيقولوا	-0.17044817
-4.9512773	وبالنسبه	-0.12410415
-4.359261	الورق	-0.16927956
-5.345185	باخرف	-0.12410415
-4.505422	والتعميم	-0.26965037
-5.345185	المطلقه	-0.12410415
-4.505422	الجانب	-0.28127286
-4.9512773	السوري	-0.12410415
-5.345185	السنه	-0.12410415
-5.345185	والسنه	-0.12410415
-5.345185	اعتقد	-0.12410415
-4.359261	بدكوا	-0.15588576
-4.9512773	بصوت	-0.12410415
-4.7273474	اذ	-0.38486692
-5.345185	والمتظاهرين	-0.24729894
-5.345185	الوصطانيه	-0.12410415
-4.9512773	تعات	-0.12410415
-4.9512773	المتر	-0.12410415
-3.6602256	منهم	-0.27648968
-5.345185	طارت	-0.12410415
-4.7273474	الضغط	-0.12410415
-4.2500987	وكر	-0.47012264
-4.9512773	ومعبر	-0.12410415
-3.4800124	الرقم	-0.22977155
-4.359261	الشفاء	-0.14861947
-4.0903783	الصلاه	-0.22353324
-4.2500987	ابعثه	-0.3324254
-4.7273474	الغام	-0.57805073
-4.9512773	يديك	-0.12410415
-4.0282245	ثابت	-0.22393344
-4.7273474	شمالا	-0.24729894
-5.345185	حجاره	-0.12410415
-4.505422	وكيف	-0.22233501
-3.9738622	الانتهاء	-0.4325256
-4.9512773	المرحله	-0.12410415
-4.9512773	الاوله	-0.12410415
-4.7273474	مرقه	-0.12410415
-4.9512773	لقد	-0.12410415
-3.8820853	تقدر	-0.13864665
-4.7273474	الكيبوتس	-0.12410415
-4.0282245	قد	-0.14861947
-4.9512773	والتطهير	-0.12410415
-5.345185	واعطينا	-0.12410415
-4.9512773	والتعامل	-0.12410415
-4.2500987	الطلب	-0.2328219
-5.345185	والفصيل	-0.12410415
-4.9512773	مكون	-0.24729894
-4.7273474	افتحي	-0.2022382
-4.9512773	هسه	-0.12410415
-4.7273474	بارجع	-0.2022382
-4.359261	وارجع	-0.16927956
-4.0903783	اعلمنا	-0.21016568
-5.345185	رجوع	-0.12410415
-4.7273474	الاقتراب	-0.12410415
-5.345185	لسلك	-0.12410415
-4.505422	الالكتروني	-0.12410415
-5.345185	عضم	-0.12410415
-4.9512773	اجرك	-0.12410415
-5.345185	مرته	-0.12410415
-5.345185	ميته	-0.12410415
-4.1629367	العريش	-0.48838666
-3.5321918	القبه	-0.8306547
-4.359261	الحديديه	-0.24292666
-5.345185	يتمركز	-0.12410415
-3.6602256	التصوير	-0.2286952
-4.2500987	نتواصل	-0.16141638
-3.6857808	وقول	-0.442417
-3.6360912	وضع	-0.2653944
-4.7273474	وقيام	-0.28127286
-5.345185	الكرتونيه	-0.18134783
-4.2500987	باعتراض	-0.16141638
-5.345185	الفشل	-0.12410415
-5.345185	احضارهم	-0.12410415
-4.359261	مكانا	-0.16141638
-4.9512773	شفتهم	-0.12410415
-5.345185	بالصفر	-0.12410415
-3.9738622	جوله	-0.21270575
-4.7273474	وبدهم	-0.12410415
-5.345185	مناح	-0.12410415
-5.345185	صغار	-0.12410415
-4.9512773	استغفر	-0.24729894
-4.9512773	القويه	-0.12410415
-5.345185	الجبار	-0.12410415
-3.8063602	بديش	-0.12410415
-4.0282245	براحتك	-0.17491718
-5.345185	يركب	-0.12410415
-3.8820853	توفيق	-0.20465149
-4.505422	خليني	-0.12410415
-4.359261	اكلم	-0.12410415
-4.7273474	العز	-0.2557778
-3.9738622	توالي	-0.23804882
-4.7273474	حيجيك	-0.12410415
-4.9512773	هديه	-0.12410415
-4.505422	عالسبعه	-0.24495962
-4.9512773	اجاني	-0.12410415
-4.359261	توي	-0.12410415
-4.9512773	مبلغ	-0.12410415
-5.345185	متكل	-0.12410415
-5.345185	عخمسين	-0.12410415
-4.9512773	بنداءك	-0.24729894
-4.359261	انتشال	-0.14405796
-4.7273474	اثناء	-0.3781829
-4.9512773	يهمك	-0.41082966
-5.345185	وقريب	-0.22233501
-3.9738622	قذيفه	-0.24626926
-4.359261	سوا	-0.48557645
-4.9512773	قاعه	-0.12410415
-4.9512773	حبيبه	-0.12410415
-4.9512773	تبعك	-0.12410415
-5.345185	اخرفك	-0.12410415
-4.505422	خاطري	-0.12410415
-5.345185	يتخرفوا	-0.12410415
-4.0903783	المختار	-0.19080843
-4.9512773	نزول	-0.5243109
-4.9512773	بطريتك	-0.24729894
-4.359261	وكلمني	-0.16141638
-4.7273474	وبلدوزر	-0.2022382
-4.2500987	الخرافين	-0.3404709
-4.7273474	مشرقات	-0.12410415
-4.9512773	اعم	-0.12410415
-4.9512773	عطلانه	-0.12410415
-4.9512773	بموضوع	-0.12410415
-4.359261	شايفك	-0.12410415
-3.7418993	بدهم	-0.1628858
-5.345185	يحولو	-0.12410415
-3.925554	حاله	-0.1860194
-3.8820853	متوسطه	-0.28771845
-4.0282245	باجيك	-0.17666645
-4.9512773	غالي	-0.28818765
-4.7273474	امتداد	-0.5243109
-5.345185	الرصاص	-0.12410415
-4.9512773	والنداء	-0.12410415
-4.505422	مجيب	-0.44299722
-4.0903783	مركز	-0.17460188
-5.345185	سدروت	-0.12410415
-4.2500987	لعمل	-0.12410418
-5.345185	تشرحها	-0.12410415
-4.9512773	الضعيف	-0.12410415
-5.345185	عمارعلي	-0.12410415
-4.2500987	تجاه	-0.19017807
-4.0903783	عال	-0.12410415
-3.925554	مباركه	-0.53897375
-4.7273474	الورقيه	-0.20083083
-4.7273474	سبعطعشر	-0.12410415
-4.9512773	حمل	-0.12410415
-4.2500987	النهار	-0.20686698
-4.359261	الاشخاص	-0.16927956
-4.505422	جلال	-0.12410415
-4.505422	نفسك	-0.12410415
-4.7273474	ليوم	-0.2022382
-4.2500987	صاحي	-0.12410418
-5.345185	ناءم	-0.12410415
-4.1629367	جوال	-0.20547317
-3.8425746	الوصول	-0.32837337
-4.505422	المطلوب	-0.16927956
-3.925554	حاليا	-0.23739499
-3.8063602	مشغول	-0.1870644
-4.2500987	تطولش	-0.12410415
-3.925554	باستناك	-0.12410415
-4.7273474	علء	-0.12410415
-3.6360912	وده	-0.5357513
-5.345185	يعدي	-0.12410415
-4.505422	عالتواصل	-0.12410415
-5.345185	منطقتكم	-0.12410415
-4.7273474	كانه	-0.12410415
-5.345185	ويضبط	-0.12410415
-5.345185	القد	-0.12410415
-4.9512773	تسلسل	-0.2022382
-4.9512773	صهاينه	-0.12410415
-4.359261	مستوطنه	-0.23214902
-5.345185	هار	-0.12410415
-5.345185	ادار	-0.12410415
-5.345185	جانب	-0.12410415
-4.0903783	الاشي	-0.22173412
-3.4967184	عليهم	-0.19804427
-5.345185	دعسه	-0.12410415
-4.9512773	الهادي	-0.12410415
-5.345185	تهديد	-0.12410415
-4.359261	قمح	-0.12410415
-4.9512773	المرشد	-0.18134783
-5.345185	عالمرشد	-0.12410415
-5.345185	قافله	-0.12410415
-5.345185	اردنيه	-0.12410415
-4.1629367	قادمه	-0.28928182
-4.1629367	حواليه	-0.15588576
-4.2500987	حوالين	-0.12410418
-4.2500987	حمدان	-0.19017807
-5.345185	النص	-0.12410415
-5.345185	جلط	-0.12410415
-5.345185	كاشعال	-0.12410415
-5.345185	اطارات	-0.12410415
-4.2500987	السيارات	-0.16141638
-4.2500987	بالمكان	-0.20686698
-4.9512773	جيت	-0.12410415
-5.345185	مفيش	-0.12410415
-4.1629367	الفجر	-0.18034142
-4.9512773	واجب	-0.24729894
-5.345185	التهيء	-0.12410415
